{"learner":{"attributes":{"best_iteration":"12","best_score":"0.19494253565961564","scikit_learn":"{\"_estimator_type\": \"classifier\"}"},"feature_names":[],"feature_types":[],"gradient_booster":{"model":{"gbtree_model_param":{"num_parallel_tree":"1","num_trees":"30"},"iteration_indptr":[0,2,4,6,8,10,12,14,16,18,20,22,24,26,28,30],"tree_info":[0,1,0,1,0,1,0,1,0,1,0,1,0,1,0,1,0,1,0,1,0,1,0,1,0,1,0,1,0,1],"trees":[{"base_weights":[1.5843903E0,1.8623974E0,-1.6676923E0,1.9430895E0,1.020649E0,-1.8205128E0,4.5882356E-1,-4.8000002E-1,1.9614936E0,-5.038168E-1,5.830189E-1,3.818182E-1,-1.9081967E0,1.0857143E0,1.9682072E0,1.7272727E0,-1.5604396E0,-0E0,-1.9335548E0,1.483871E0,-3E-1,1.9738717E0,1.1515151E0,5.4E-1,1.5E-1,3.818182E-1,-1.8571428E0,-6.666667E-2,-1.9594594E0,-0E0,5.1111114E-1,5.925089E-1,1.5E-1,-3.3333337E-1,5.1428574E-1,-1.5E-1,-5.7E-1,-5.9178084E-1,-1.5E-1],"categories":[],"categories_nodes":[],"categories_segments":[],"categories_sizes":[],"default_left":[0,0,0,0,0,0,0,0,0,0,0,0,0,0,0,0,0,0,0,0,0,0,0,0,0,0,0,0,0,0,0,0,0,0,0,0,0,0,0],"id":0,"left_children":[1,3,5,7,9,11,-1,-1,13,15,-1,-1,17,19,21,23,25,-1,27,29,-1,31,33,-1,-1,-1,35,-1,37,-1,-1,-1,-1,-1,-1,-1,-1,-1,-1],"loss_changes":[9.2981104E2,6.218628E1,4.2481674E1,5.9282227E1,1.20196655E2,2.358435E1,0E0,0E0,2.9018555E0,7.99008E1,0E0,0E0,3.6896057E0,8.750231E0,1.6557617E0,8.182144E-2,2.1487514E1,0E0,2.9005127E0,2.5280762E0,0E0,4.4970703E-1,1.2409811E1,0E0,0E0,0E0,2.7142334E-1,0E0,4.3319702E-1,0E0,0E0,0E0,0E0,0E0,0E0,0E0,0E0,0E0,0E0],"parents":[2147483647,0,0,1,1,2,2,3,3,4,4,5,5,8,8,9,9,12,12,13,13,14,14,15,15,16,16,18,18,19,19,21,21,22,22,26,26,28,28],"right_children":[2,4,6,8,10,12,-1,-1,14,16,-1,-1,18,20,22,24,26,-1,28,30,-1,32,34,-1,-1,-1,36,-1,38,-1,-1,-1,-1,-1,-1,-1,-1,-1,-1],"split_conditions":[9.3496627E-1,1.220345E5,7.653606E3,3.356399E-1,1.1862545E0,1.09144E0,4.5882356E-1,-4.8000002E-1,1.3893636E-1,6.642642E-1,5.830189E-1,3.818182E-1,4.295E3,1.0210405E-1,3.622091E-1,5.9080925E0,1.1318242E5,-0E0,1.2598455E0,4.7465083E-1,-3E-1,8.533994E-1,7.044235E-1,5.4E-1,1.5E-1,3.818182E-1,4.553335E3,-6.666667E-2,4.183299E5,-0E0,5.1111114E-1,5.925089E-1,1.5E-1,-3.3333337E-1,5.1428574E-1,-1.5E-1,-5.7E-1,-5.9178084E-1,-1.5E-1],"split_indices":[30,2,38,67,66,23,0,0,25,30,0,0,12,85,63,15,62,0,36,7,0,30,60,0,0,0,8,0,18,0,0,0,0,0,0,0,0,0,0],"split_type":[0,0,0,0,0,0,0,0,0,0,0,0,0,0,0,0,0,0,0,0,0,0,0,0,0,0,0,0,0,0,0,0,0,0,0,0,0,0,0],"sum_hessian":[1.024E3,9.4375E2,8.025E1,8.6E2,8.375E1,7.7E1,3.25E0,4E0,8.56E2,3.175E1,5.2E1,1.75E0,7.525E1,7.75E0,8.4825E2,1E1,2.175E1,1E0,7.425E1,6.75E0,1E0,8.41E2,7.25E0,9E0,1E0,1.75E0,2E1,1.25E0,7.3E1,1E0,5.75E0,8.4E2,1E0,1.25E0,6E0,1E0,1.9E1,7.2E1,1E0],"tree_param":{"num_deleted":"0","num_feature":"90","num_nodes":"39","size_leaf_vector":"1"}},{"base_weights":[-1.5843903E0,-1.8623974E0,1.6676923E0,-1.9430895E0,-1.020649E0,1.8205128E0,-4.5882356E-1,4.8000002E-1,-1.9614936E0,5.038168E-1,-5.830189E-1,-3.818182E-1,1.9081967E0,-1.0857143E0,-1.9682072E0,-1.7272727E0,1.5604396E0,-0E0,1.9335548E0,-1.483871E0,3E-1,-1.9738717E0,-1.1515151E0,-5.4E-1,-1.5E-1,-3.818182E-1,1.8571428E0,6.666667E-2,1.9594594E0,-0E0,-5.1111114E-1,-5.925089E-1,-1.5E-1,3.3333337E-1,-5.1428574E-1,1.5E-1,5.7E-1,5.9178084E-1,1.5E-1],"categories":[],"categories_nodes":[],"categories_segments":[],"categories_sizes":[],"default_left":[0,0,0,0,0,0,0,0,0,0,0,0,0,0,0,0,0,0,0,0,0,0,0,0,0,0,0,0,0,0,0,0,0,0,0,0,0,0,0],"id":1,"left_children":[1,3,5,7,9,11,-1,-1,13,15,-1,-1,17,19,21,23,25,-1,27,29,-1,31,33,-1,-1,-1,35,-1,37,-1,-1,-1,-1,-1,-1,-1,-1,-1,-1],"loss_changes":[9.2981104E2,6.218628E1,4.2481674E1,5.9282227E1,1.20196655E2,2.358435E1,0E0,0E0,2.9018555E0,7.99008E1,0E0,0E0,3.6896057E0,8.750231E0,1.6557617E0,8.182144E-2,2.1487514E1,0E0,2.9005127E0,2.5280762E0,0E0,4.4970703E-1,1.2409811E1,0E0,0E0,0E0,2.7142334E-1,0E0,4.3319702E-1,0E0,0E0,0E0,0E0,0E0,0E0,0E0,0E0,0E0,0E0],"parents":[2147483647,0,0,1,1,2,2,3,3,4,4,5,5,8,8,9,9,12,12,13,13,14,14,15,15,16,16,18,18,19,19,21,21,22,22,26,26,28,28],"right_children":[2,4,6,8,10,12,-1,-1,14,16,-1,-1,18,20,22,24,26,-1,28,30,-1,32,34,-1,-1,-1,36,-1,38,-1,-1,-1,-1,-1,-1,-1,-1,-1,-1],"split_conditions":[9.3496627E-1,1.220345E5,7.653606E3,3.356399E-1,1.1862545E0,1.09144E0,-4.5882356E-1,4.8000002E-1,1.3893636E-1,6.642642E-1,-5.830189E-1,-3.818182E-1,4.295E3,1.0210405E-1,3.622091E-1,5.9080925E0,1.1318242E5,-0E0,1.2598455E0,4.7465083E-1,3E-1,8.533994E-1,7.044235E-1,-5.4E-1,-1.5E-1,-3.818182E-1,4.553335E3,6.666667E-2,4.183299E5,-0E0,-5.1111114E-1,-5.925089E-1,-1.5E-1,3.3333337E-1,-5.1428574E-1,1.5E-1,5.7E-1,5.9178084E-1,1.5E-1],"split_indices":[30,2,38,67,66,23,0,0,25,30,0,0,12,85,63,15,62,0,36,7,0,30,60,0,0,0,8,0,18,0,0,0,0,0,0,0,0,0,0],"split_type":[0,0,0,0,0,0,0,0,0,0,0,0,0,0,0,0,0,0,0,0,0,0,0,0,0,0,0,0,0,0,0,0,0,0,0,0,0,0,0],"sum_hessian":[1.024E3,9.4375E2,8.025E1,8.6E2,8.375E1,7.7E1,3.25E0,4E0,8.56E2,3.175E1,5.2E1,1.75E0,7.525E1,7.75E0,8.4825E2,1E1,2.175E1,1E0,7.425E1,6.75E0,1E0,8.41E2,7.25E0,9E0,1E0,1.75E0,2E1,1.25E0,7.3E1,1E0,5.75E0,8.4E2,1E0,1.25E0,6E0,1E0,1.9E1,7.2E1,1E0],"tree_param":{"num_deleted":"0","num_feature":"90","num_nodes":"39","size_leaf_vector":"1"}},{"base_weights":[1.2232306E0,1.4382432E0,-1.2787495E0,1.5004638E0,7.9270536E-1,-1.4034982E0,3.697465E-1,-3.8399875E-1,1.5154464E0,-3.71373E-1,4.5174292E-1,3.1697506E-1,-1.4775994E0,8.270996E-1,1.5208938E0,1.3603193E0,-1.2000932E0,-1.5022432E0,-7.133289E-3,-1.6189228E-1,1.1377013E0,1.5278329E0,1.0167174E0,4.299232E-1,1.2876692E-1,3.1697506E-1,-1.4491976E0,-1.5258718E0,-5.8432496E-1,1.699432E-2,4.041657E-1,4.5872834E-1,1.4349826E-1,-3.3507672E-1,4.0896198E-1,-1.2537207E-1,-4.4767362E-1,-4.6183997E-1,-1.2292386E-1,-2.6417315E-1,-7.133289E-3],"categories":[],"categories_nodes":[],"categories_segments":[],"categories_sizes":[],"default_left":[0,0,0,0,0,0,0,0,0,0,0,0,0,0,0,0,0,0,0,0,0,0,0,0,0,0,0,0,0,0,0,0,0,0,0,0,0,0,0,0,0],"id":2,"left_children":[1,3,5,7,9,11,-1,-1,13,15,-1,-1,17,19,21,23,25,27,-1,-1,29,31,33,-1,-1,-1,35,37,39,-1,-1,-1,-1,-1,-1,-1,-1,-1,-1,-1,-1],"loss_changes":[5.0850403E2,3.366504E1,2.5244865E1,3.486499E1,6.5646095E1,1.4682327E1,0E0,0E0,1.6915283E0,4.552849E1,0E0,0E0,2.482605E0,4.1662965E0,1.1727295E0,8.7329865E-2,1.3459278E1,6.071625E-1,0E0,0E0,1.540946E0,2.836914E-1,1.1553229E1,0E0,0E0,0E0,2.4345398E-1,3.8198853E-1,5.36163E-1,0E0,0E0,0E0,0E0,0E0,0E0,0E0,0E0,0E0,0E0,0E0,0E0],"parents":[2147483647,0,0,1,1,2,2,3,3,4,4,5,5,8,8,9,9,12,12,13,13,14,14,15,15,16,16,17,17,20,20,21,21,22,22,26,26,27,27,28,28],"right_children":[2,4,6,8,10,12,-1,-1,14,16,-1,-1,18,20,22,24,26,28,-1,-1,30,32,34,-1,-1,-1,36,38,40,-1,-1,-1,-1,-1,-1,-1,-1,-1,-1,-1,-1],"split_conditions":[9.3496627E-1,1.220345E5,7.653606E3,3.356399E-1,1.1862545E0,1.09144E0,3.697465E-1,-3.8399875E-1,1.3893636E-1,6.642642E-1,4.5174292E-1,3.1697506E-1,2.3837E4,1.5703E4,3.349139E-1,-3.2541564E-1,1.1318242E5,5.4803693E-1,-7.133289E-3,-1.6189228E-1,6.7790675E-1,1.6705362E-2,8.0531625E4,4.299232E-1,1.2876692E-1,3.1697506E-1,5.92E3,7.522998E3,8.332773E-1,1.699432E-2,4.041657E-1,4.5872834E-1,1.4349826E-1,-3.3507672E-1,4.0896198E-1,-1.2537207E-1,-4.4767362E-1,-4.6183997E-1,-1.2292386E-1,-2.6417315E-1,-7.133289E-3],"split_indices":[30,2,38,67,66,23,0,0,25,30,0,0,88,42,63,24,62,80,0,0,0,22,62,0,0,0,12,68,33,0,0,0,0,0,0,0,0,0,0,0,0],"split_type":[0,0,0,0,0,0,0,0,0,0,0,0,0,0,0,0,0,0,0,0,0,0,0,0,0,0,0,0,0,0,0,0,0,0,0,0,0,0,0,0,0],"sum_hessian":[9.4083105E2,8.6676874E2,7.4062325E1,7.8936115E2,7.74076E1,7.097754E1,3.0847805E0,3.778167E0,7.85583E2,2.958765E1,4.7819946E1,1.6877372E0,6.92898E1,7.3680735E0,7.782149E2,9.368914E0,2.0218737E1,6.81021E1,1.1877099E0,1.2278333E0,6.14024E0,7.6564685E2,1.2568059E1,8.189813E0,1.179101E0,1.6877372E0,1.8530998E1,6.5747345E1,2.354749E0,1.2030748E0,4.9371653E0,7.642712E2,1.3756866E0,1.4451919E0,1.1122868E1,1.1715782E0,1.735942E1,6.458143E1,1.1659156E0,1.167039E0,1.1877099E0],"tree_param":{"num_deleted":"0","num_feature":"90","num_nodes":"41","size_leaf_vector":"1"}},{"base_weights":[-1.2232306E0,-1.4382432E0,1.2787495E0,-1.5004638E0,-7.927053E-1,1.4034983E0,-3.697465E-1,3.8399875E-1,-1.5154464E0,3.7137306E-1,-4.5174292E-1,-3.1697506E-1,1.4775994E0,-8.2709974E-1,-1.5208938E0,-1.3603194E0,1.2000933E0,1.5022433E0,7.133285E-3,1.6189228E-1,-1.1377014E0,-1.5278329E0,-1.0167173E0,-4.2992327E-1,-1.2876695E-1,-3.1697506E-1,1.4491978E0,1.5258718E0,5.8432496E-1,-1.6994333E-2,-4.0416574E-1,-4.5872834E-1,-1.4349826E-1,3.3507672E-1,-4.0896192E-1,1.253721E-1,4.4767368E-1,4.6183997E-1,1.2292384E-1,2.6417315E-1,7.133285E-3],"categories":[],"categories_nodes":[],"categories_segments":[],"categories_sizes":[],"default_left":[0,0,0,0,0,0,0,0,0,0,0,0,0,0,0,0,0,0,0,0,0,0,0,0,0,0,0,0,0,0,0,0,0,0,0,0,0,0,0,0,0],"id":3,"left_children":[1,3,5,7,9,11,-1,-1,13,15,-1,-1,17,19,21,23,25,27,-1,-1,29,31,33,-1,-1,-1,35,37,39,-1,-1,-1,-1,-1,-1,-1,-1,-1,-1,-1,-1],"loss_changes":[5.0850403E2,3.366504E1,2.5244865E1,3.486499E1,6.56461E1,1.4682343E1,0E0,0E0,1.6915283E0,4.5528492E1,0E0,0E0,2.4825897E0,4.166298E0,1.1727295E0,8.7329865E-2,1.3459284E1,6.071625E-1,0E0,0E0,1.540945E0,2.836914E-1,1.1553229E1,0E0,0E0,0E0,2.4345016E-1,3.8198853E-1,5.3616285E-1,0E0,0E0,0E0,0E0,0E0,0E0,0E0,0E0,0E0,0E0,0E0,0E0],"parents":[2147483647,0,0,1,1,2,2,3,3,4,4,5,5,8,8,9,9,12,12,13,13,14,14,15,15,16,16,17,17,20,20,21,21,22,22,26,26,27,27,28,28],"right_children":[2,4,6,8,10,12,-1,-1,14,16,-1,-1,18,20,22,24,26,28,-1,-1,30,32,34,-1,-1,-1,36,38,40,-1,-1,-1,-1,-1,-1,-1,-1,-1,-1,-1,-1],"split_conditions":[9.3496627E-1,1.220345E5,7.653606E3,3.356399E-1,1.1862545E0,1.09144E0,-3.697465E-1,3.8399875E-1,1.3893636E-1,6.642642E-1,-4.5174292E-1,-3.1697506E-1,2.3837E4,1.5703E4,3.349139E-1,-3.2541564E-1,1.1318242E5,5.4803693E-1,7.133285E-3,1.6189228E-1,6.7790675E-1,1.6705362E-2,8.0531625E4,-4.2992327E-1,-1.2876695E-1,-3.1697506E-1,5.92E3,7.522998E3,8.332773E-1,-1.6994333E-2,-4.0416574E-1,-4.5872834E-1,-1.4349826E-1,3.3507672E-1,-4.0896192E-1,1.253721E-1,4.4767368E-1,4.6183997E-1,1.2292384E-1,2.6417315E-1,7.133285E-3],"split_indices":[30,2,38,67,66,23,0,0,25,30,0,0,88,42,63,24,62,80,0,0,0,22,62,0,0,0,12,68,33,0,0,0,0,0,0,0,0,0,0,0,0],"split_type":[0,0,0,0,0,0,0,0,0,0,0,0,0,0,0,0,0,0,0,0,0,0,0,0,0,0,0,0,0,0,0,0,0,0,0,0,0,0,0,0,0],"sum_hessian":[9.4083105E2,8.6676874E2,7.406232E1,7.8936115E2,7.74076E1,7.097753E1,3.0847805E0,3.778167E0,7.85583E2,2.9587652E1,4.7819946E1,1.6877375E0,6.9289795E1,7.368073E0,7.782149E2,9.368914E0,2.0218739E1,6.810209E1,1.1877098E0,1.2278333E0,6.1402397E0,7.6564685E2,1.2568059E1,8.189813E0,1.179101E0,1.6877375E0,1.8531E1,6.574734E1,2.3547487E0,1.2030747E0,4.9371653E0,7.642712E2,1.3756866E0,1.445192E0,1.1122868E1,1.1715782E0,1.7359423E1,6.458142E1,1.1659155E0,1.1670389E0,1.1877098E0],"tree_param":{"num_deleted":"0","num_feature":"90","num_nodes":"41","size_leaf_vector":"1"}},{"base_weights":[1.0530126E0,1.2395037E0,-1.0865707E0,-3.2812536E-1,1.2517422E0,-1.1998136E0,3.1607807E-1,1.313235E0,7.175553E-1,2.576608E-1,-1.2765764E0,1.320196E0,7.4696475E-1,-2.7327228E-1,3.9928824E-1,6.1210588E-2,-1.3224237E0,6.1929977E-1,1.3242584E0,-2.8633276E-1,1.1185032E0,1.0685923E0,-9.279785E-1,-4.0066916E-1,-1.0523793E-1,3.1449342E-1,-2.6478708E-2,3.9767012E-1,8.869939E-2,5.843061E-2,3.636316E-1,-7.366956E-2,3.7170893E-1,3.2045326E-1,-3.7159297E-1],"categories":[],"categories_nodes":[],"categories_segments":[],"categories_sizes":[],"default_left":[0,0,0,0,0,0,0,0,0,0,0,0,0,0,0,0,0,0,0,0,0,0,0,0,0,0,0,0,0,0,0,0,0,0,0],"id":4,"left_children":[1,3,5,-1,7,9,-1,11,13,-1,15,17,19,21,-1,-1,23,25,27,-1,29,31,33,-1,-1,-1,-1,-1,-1,-1,-1,-1,-1,-1,-1],"loss_changes":[3.1737225E2,2.2185669E1,1.6782875E1,0E0,2.2894165E1,1.07808E1,0E0,1.5742188E0,4.723203E1,0E0,4.3075256E0,1.0031738E0,7.5094385E0,2.762463E1,0E0,0E0,2.698059E-1,1.7828686E0,4.6374512E-1,0E0,5.269232E-1,2.6349487E0,1.4289997E1,0E0,0E0,0E0,0E0,0E0,0E0,0E0,0E0,0E0,0E0,0E0,0E0],"parents":[2147483647,0,0,1,1,2,2,4,4,5,5,7,7,8,8,10,10,11,11,12,12,13,13,16,16,17,17,18,18,20,20,21,21,22,22],"right_children":[2,4,6,-1,8,10,-1,12,14,-1,16,18,20,22,-1,-1,24,26,28,-1,30,32,34,-1,-1,-1,-1,-1,-1,-1,-1,-1,-1,-1,-1],"split_conditions":[9.3496627E-1,3.356399E-1,7.653606E3,-3.2812536E-1,1.2401924E0,5.547E3,3.1607807E-1,3.349139E-1,1.2048223E0,2.576608E-1,1.2598455E0,1.345526E-1,8.0531625E4,6.642642E-1,3.9928824E-1,6.1210588E-2,7.522998E3,4.8718E4,1.6705362E-2,-2.8633276E-1,4.7328193E3,6.9360197E-1,5.76597E-1,-4.0066916E-1,-1.0523793E-1,3.1449342E-1,-2.6478708E-2,3.9767012E-1,8.869939E-2,5.843061E-2,3.636316E-1,-7.366956E-2,3.7170893E-1,3.2045326E-1,-3.7159297E-1],"split_indices":[30,67,38,0,6,42,0,63,66,0,36,25,62,30,0,0,68,87,22,0,8,3,67,0,0,0,0,0,0,0,0,0,0,0,0],"split_type":[0,0,0,0,0,0,0,0,0,0,0,0,0,0,0,0,0,0,0,0,0,0,0,0,0,0,0,0,0,0,0,0,0,0,0],"sum_hessian":[7.9101715E2,7.279849E2,6.30322E1,3.3374336E0,7.246475E2,6.0281876E1,2.7503245E0,6.4853345E2,7.611407E1,1.8007002E0,5.8481174E1,6.3934283E2,9.190639E0,2.9315514E1,4.6798553E1,1.6528559E0,5.682832E1,4.5685377E0,6.347743E2,1.3660614E0,7.824577E0,9.405708E0,1.9909805E1,5.5700485E1,1.1278352E0,2.5442917E0,2.0242457E0,6.336794E2,1.094905E0,1.0033726E0,6.8212047E0,1.0292076E0,8.376501E0,2.3529181E0,1.7556887E1],"tree_param":{"num_deleted":"0","num_feature":"90","num_nodes":"35","size_leaf_vector":"1"}},{"base_weights":[-1.0530125E0,-1.2395036E0,1.0865707E0,3.2812536E-1,-1.2517421E0,1.1998137E0,-3.1607807E-1,-1.3132348E0,-7.1755534E-1,-2.5766078E-1,1.2765765E0,-1.3201958E0,-7.469649E-1,2.7327225E-1,-3.9928824E-1,-6.121057E-2,1.3224238E0,-6.192997E-1,-1.3242582E0,2.8633276E-1,-1.1185032E0,-1.0685923E0,9.279785E-1,4.0066916E-1,1.0523793E-1,-3.144934E-1,2.647871E-2,-3.976701E-1,-8.869939E-2,-5.8430653E-2,-3.6363164E-1,7.366957E-2,-3.717089E-1,-3.2045326E-1,3.7159297E-1],"categories":[],"categories_nodes":[],"categories_segments":[],"categories_sizes":[],"default_left":[0,0,0,0,0,0,0,0,0,0,0,0,0,0,0,0,0,0,0,0,0,0,0,0,0,0,0,0,0,0,0,0,0,0,0],"id":5,"left_children":[1,3,5,-1,7,9,-1,11,13,-1,15,17,19,21,-1,-1,23,25,27,-1,29,31,33,-1,-1,-1,-1,-1,-1,-1,-1,-1,-1,-1,-1],"loss_changes":[3.173722E2,2.2185669E1,1.6782867E1,0E0,2.2894165E1,1.07808E1,0E0,1.5740967E0,4.723203E1,0E0,4.3075333E0,1.0032959E0,7.5094404E0,2.762463E1,0E0,0E0,2.6979828E-1,1.7828686E0,4.638672E-1,0E0,5.269232E-1,2.6349487E0,1.4289995E1,0E0,0E0,0E0,0E0,0E0,0E0,0E0,0E0,0E0,0E0,0E0,0E0],"parents":[2147483647,0,0,1,1,2,2,4,4,5,5,7,7,8,8,10,10,11,11,12,12,13,13,16,16,17,17,18,18,20,20,21,21,22,22],"right_children":[2,4,6,-1,8,10,-1,12,14,-1,16,18,20,22,-1,-1,24,26,28,-1,30,32,34,-1,-1,-1,-1,-1,-1,-1,-1,-1,-1,-1,-1],"split_conditions":[9.3496627E-1,3.356399E-1,7.653606E3,3.2812536E-1,1.2401924E0,5.547E3,-3.1607807E-1,3.349139E-1,1.2048223E0,-2.5766078E-1,1.2598455E0,1.345526E-1,8.0531625E4,6.642642E-1,-3.9928824E-1,-6.121057E-2,7.522998E3,4.8718E4,1.6705362E-2,2.8633276E-1,4.7328193E3,6.9360197E-1,5.76597E-1,4.0066916E-1,1.0523793E-1,-3.144934E-1,2.647871E-2,-3.976701E-1,-8.869939E-2,-5.8430653E-2,-3.6363164E-1,7.366957E-2,-3.717089E-1,-3.2045326E-1,3.7159297E-1],"split_indices":[30,67,38,0,6,42,0,63,66,0,36,25,62,30,0,0,68,87,22,0,8,3,67,0,0,0,0,0,0,0,0,0,0,0,0],"split_type":[0,0,0,0,0,0,0,0,0,0,0,0,0,0,0,0,0,0,0,0,0,0,0,0,0,0,0,0,0,0,0,0,0,0,0],"sum_hessian":[7.9101715E2,7.279849E2,6.3032204E1,3.3374336E0,7.246475E2,6.028188E1,2.7503245E0,6.4853345E2,7.611407E1,1.8007002E0,5.848118E1,6.3934283E2,9.19064E0,2.9315512E1,4.6798553E1,1.6528559E0,5.6828323E1,4.5685377E0,6.347743E2,1.3660614E0,7.824579E0,9.405708E0,1.9909803E1,5.570049E1,1.1278352E0,2.5442917E0,2.0242457E0,6.336794E2,1.094905E0,1.0033728E0,6.8212056E0,1.0292076E0,8.376501E0,2.3529181E0,1.7556885E1],"tree_param":{"num_deleted":"0","num_feature":"90","num_nodes":"35","size_leaf_vector":"1"}},{"base_weights":[9.527628E-1,1.1225191E0,-9.633364E-1,-2.8971508E-1,1.1343657E0,-1.071497E0,2.7852663E-1,1.204955E0,7.2510123E-1,2.4932231E-1,-1.144558E0,3.684459E-1,1.0464873E0,-3.3031192E-1,1.1894064E0,-3.3770633E-1,-1.2028371E0,1.1976986E0,5.479344E-1,7.463294E-1,-8.6679316E-1,1.203947E0,6.882466E-2,-2.810471E-1,2.0868286E-1,-3.661456E-1,-8.746061E-2,5.106625E-2,3.6480626E-1,3.4814417E-1,-4.100734E-1,2.7805746E-1,-1.1957187E-1,2.6493606E-1,-3.6328542E-1,3.6536136E-1,5.9494402E-2],"categories":[],"categories_nodes":[],"categories_segments":[],"categories_sizes":[],"default_left":[0,0,0,0,0,0,0,0,0,0,0,0,0,0,0,0,0,0,0,0,0,0,0,0,0,0,0,0,0,0,0,0,0,0,0,0,0],"id":6,"left_children":[1,3,5,-1,7,9,-1,11,13,-1,15,-1,17,19,21,23,25,27,29,31,33,35,-1,-1,-1,-1,-1,-1,-1,-1,-1,-1,-1,-1,-1,-1,-1],"loss_changes":[2.0920074E2,1.5647278E1,1.1759701E1,0E0,1.6037292E1,7.9333344E0,0E0,5.4455566E-1,4.3820625E1,0E0,1.8881645E0,0E0,4.6449814E0,1.6737906E1,5.859375E-1,3.5472543E0,3.697815E-1,7.928848E-1,2.2943068E1,2.39544E0,1.2545927E1,6.0713196E-1,0E0,0E0,0E0,0E0,0E0,0E0,0E0,0E0,0E0,0E0,0E0,0E0,0E0,0E0,0E0],"parents":[2147483647,0,0,1,1,2,2,4,4,5,5,7,7,8,8,10,10,12,12,13,13,14,14,15,15,16,16,17,17,18,18,19,19,20,20,21,21],"right_children":[2,4,6,-1,8,10,-1,12,14,-1,16,-1,18,20,22,24,26,28,30,32,34,36,-1,-1,-1,-1,-1,-1,-1,-1,-1,-1,-1,-1,-1,-1,-1],"split_conditions":[9.3496627E-1,3.356399E-1,7.653606E3,-2.8971508E-1,3.912189E-1,1.09144E0,2.7852663E-1,5.226919E-1,1.1862545E0,2.4932231E-1,9.5810664E-1,3.684459E-1,7.3567E4,-3.494078E-1,4.5416E4,2.930691E0,3.2309E4,1.0085937E0,-2.5154075E-1,5.3419447E-1,4.490213E3,3.6962783E-1,6.882466E-2,-2.810471E-1,2.0868286E-1,-3.661456E-1,-8.746061E-2,5.106625E-2,3.6480626E-1,3.4814417E-1,-4.100734E-1,2.7805746E-1,-1.1957187E-1,2.6493606E-1,-3.6328542E-1,3.6536136E-1,5.9494402E-2],"split_indices":[30,67,38,0,37,23,0,30,66,0,83,0,28,24,56,49,58,66,84,37,8,55,0,0,0,0,0,0,0,0,0,0,0,0,0,0,0],"split_type":[0,0,0,0,0,0,0,0,0,0,0,0,0,0,0,0,0,0,0,0,0,0,0,0,0,0,0,0,0,0,0,0,0,0,0,0,0],"sum_hessian":[6.388357E2,5.872248E2,5.1610867E1,2.858344E0,5.8436646E2,4.922977E1,2.3810954E0,4.9674454E2,8.762194E1,1.4368871E0,4.779288E1,4.274241E2,6.932044E1,2.6858473E1,6.0763466E1,3.6772685E0,4.4115616E1,5.2112392E1,1.7208052E1,8.802318E0,1.8056154E1,5.960651E1,1.1569551E0,2.3867884E0,1.2904804E0,4.294467E1,1.1709406E0,1.0932863E0,5.1019104E1,1.3335934E1,3.872118E0,7.7679167E0,1.0344014E0,2.7101328E0,1.5346022E1,5.858429E1,1.0222207E0],"tree_param":{"num_deleted":"0","num_feature":"90","num_nodes":"37","size_leaf_vector":"1"}},{"base_weights":[-9.5276284E-1,-1.1225191E0,9.6333635E-1,2.897151E-1,-1.1343658E0,1.071497E0,-2.7852666E-1,-1.2049551E0,-7.2510123E-1,-2.4932231E-1,1.144558E0,-3.684459E-1,-1.0464875E0,3.3031186E-1,-1.1894064E0,3.377063E-1,1.2028371E0,-1.1976987E0,-5.4793453E-1,-7.463294E-1,8.667931E-1,-1.203947E0,-6.882463E-2,2.8104708E-1,-2.0868288E-1,3.661456E-1,8.746061E-2,-5.106629E-2,-3.648063E-1,-3.481442E-1,4.1007334E-1,-2.780575E-1,1.1957189E-1,-2.6493606E-1,3.6328542E-1,-3.6536136E-1,-5.949438E-2],"categories":[],"categories_nodes":[],"categories_segments":[],"categories_sizes":[],"default_left":[0,0,0,0,0,0,0,0,0,0,0,0,0,0,0,0,0,0,0,0,0,0,0,0,0,0,0,0,0,0,0,0,0,0,0,0,0],"id":7,"left_children":[1,3,5,-1,7,9,-1,11,13,-1,15,-1,17,19,21,23,25,27,29,31,33,35,-1,-1,-1,-1,-1,-1,-1,-1,-1,-1,-1,-1,-1,-1,-1],"loss_changes":[2.0920074E2,1.5647278E1,1.1759705E1,0E0,1.6037354E1,7.933338E0,0E0,5.444946E-1,4.382063E1,0E0,1.8881683E0,0E0,4.6449738E0,1.6737907E1,5.859299E-1,3.5472546E0,3.6977386E-1,7.928848E-1,2.2943066E1,2.3954415E0,1.2545931E1,6.071243E-1,0E0,0E0,0E0,0E0,0E0,0E0,0E0,0E0,0E0,0E0,0E0,0E0,0E0,0E0,0E0],"parents":[2147483647,0,0,1,1,2,2,4,4,5,5,7,7,8,8,10,10,12,12,13,13,14,14,15,15,16,16,17,17,18,18,19,19,20,20,21,21],"right_children":[2,4,6,-1,8,10,-1,12,14,-1,16,-1,18,20,22,24,26,28,30,32,34,36,-1,-1,-1,-1,-1,-1,-1,-1,-1,-1,-1,-1,-1,-1,-1],"split_conditions":[9.3496627E-1,3.356399E-1,7.653606E3,2.897151E-1,3.912189E-1,1.09144E0,-2.7852666E-1,5.226919E-1,1.1862545E0,-2.4932231E-1,9.5810664E-1,-3.684459E-1,7.3567E4,-3.494078E-1,4.5416E4,2.930691E0,3.2309E4,1.0085937E0,-2.5154075E-1,5.3419447E-1,4.490213E3,3.6962783E-1,-6.882463E-2,2.8104708E-1,-2.0868288E-1,3.661456E-1,8.746061E-2,-5.106629E-2,-3.648063E-1,-3.481442E-1,4.1007334E-1,-2.780575E-1,1.1957189E-1,-2.6493606E-1,3.6328542E-1,-3.6536136E-1,-5.949438E-2],"split_indices":[30,67,38,0,37,23,0,30,66,0,83,0,28,24,56,49,58,66,84,37,8,55,0,0,0,0,0,0,0,0,0,0,0,0,0,0,0],"split_type":[0,0,0,0,0,0,0,0,0,0,0,0,0,0,0,0,0,0,0,0,0,0,0,0,0,0,0,0,0,0,0,0,0,0,0,0,0],"sum_hessian":[6.3883575E2,5.8722485E2,5.1610863E1,2.8583443E0,5.843665E2,4.9229767E1,2.3810956E0,4.9674457E2,8.762194E1,1.4368871E0,4.7792877E1,4.2742413E2,6.932045E1,2.6858475E1,6.0763462E1,3.6772683E0,4.411561E1,5.2112396E1,1.7208054E1,8.802319E0,1.8056156E1,5.960651E1,1.156955E0,2.3867881E0,1.2904803E0,4.2944668E1,1.1709405E0,1.0932864E0,5.1019108E1,1.3335935E1,3.8721185E0,7.767917E0,1.0344014E0,2.710133E0,1.5346023E1,5.858429E1,1.0222206E0],"tree_param":{"num_deleted":"0","num_feature":"90","num_nodes":"37","size_leaf_vector":"1"}},{"base_weights":[8.847883E-1,1.0480933E0,-8.2809365E-1,-2.6032296E-1,1.0600191E0,-9.899448E-1,2.813385E-1,1.1270169E0,6.731162E-1,1.9961037E-1,-1.0699934E0,1.1536641E0,9.5169646E-1,-2.9238394E-1,1.1037861E0,-1.1402829E0,-3.2588556E-1,6.869265E-1,3.4787703E-1,1.0537605E0,1.2869321E-1,4.7993648E-1,-8.6892444E-1,1.8079787E-2,1.1275282E0,-3.467178E-1,-1.0192657E-1,2.440952E-1,-2.624642E-1,-1.06950596E-1,2.8610888E-1,4.5424897E-2,3.3423007E-1,-5.787858E-1,2.9753906E-1,-1.9056623E-1,2.8185758E-1,2.3041146E-1,-3.4792915E-1,8.594575E-2,3.420614E-1],"categories":[],"categories_nodes":[],"categories_segments":[],"categories_sizes":[],"default_left":[0,0,0,0,0,0,0,0,0,0,0,0,0,0,0,0,0,0,0,0,0,0,0,0,0,0,0,0,0,0,0,0,0,0,0,0,0,0,0,0,0],"id":8,"left_children":[1,3,5,-1,7,9,-1,11,13,-1,15,17,19,21,23,25,27,29,-1,31,33,35,37,-1,39,-1,-1,-1,-1,-1,-1,-1,-1,-1,-1,-1,-1,-1,-1,-1,-1],"loss_changes":[1.425799E2,1.1497559E1,1.3691263E1,0E0,1.1179565E1,6.19664E0,0E0,7.29126E-1,2.9621601E1,0E0,1.7135353E0,1.2939453E-1,4.678486E0,1.0447097E1,1.1444511E0,5.2703857E-2,3.7403557E0,2.1911666E0,0E0,2.5998917E0,1.516848E1,5.861479E0,7.200573E0,0E0,1.8287277E-1,0E0,0E0,0E0,0E0,0E0,0E0,0E0,0E0,0E0,0E0,0E0,0E0,0E0,0E0,0E0,0E0],"parents":[2147483647,0,0,1,1,2,2,4,4,5,5,7,7,8,8,10,10,11,11,12,12,13,13,14,14,15,15,16,16,17,17,19,19,20,20,21,21,22,22,24,24],"right_children":[2,4,6,-1,8,10,-1,12,14,-1,16,18,20,22,24,26,28,30,-1,32,34,36,38,-1,40,-1,-1,-1,-1,-1,-1,-1,-1,-1,-1,-1,-1,-1,-1,-1,-1],"split_conditions":[4.3538E4,3.356399E-1,7.604166E3,-2.6032296E-1,3.912189E-1,1.0979302E0,2.813385E-1,5.226919E-1,1.183926E0,1.9961037E-1,1.5436294E0,7.062E3,4.2877217E3,9.0501434E-1,2.1482947E0,3.903327E-1,5.5122013E0,7.818174E-1,3.4787703E-1,7.8698805E4,1.1722502E0,5.238224E-1,1.0841957E0,1.8079787E-2,1.2943553E5,-3.467178E-1,-1.0192657E-1,2.440952E-1,-2.624642E-1,-1.06950596E-1,2.8610888E-1,4.5424897E-2,3.3423007E-1,-5.787858E-1,2.9753906E-1,-1.9056623E-1,2.8185758E-1,2.3041146E-1,-3.4792915E-1,8.594575E-2,3.420614E-1],"split_indices":[56,67,68,0,37,23,0,30,66,0,3,26,81,60,49,71,19,0,0,62,66,7,36,0,18,0,0,0,0,0,0,0,0,0,0,0,0,0,0,0,0],"split_type":[0,0,0,0,0,0,0,0,0,0,0,0,0,0,0,0,0,0,0,0,0,0,0,0,0,0,0,0,0,0,0,0,0,0,0,0,0,0,0,0,0],"sum_hessian":[5.0561676E2,4.6196176E2,4.365502E1,2.4139094E0,4.5954785E2,4.0392303E1,3.2627182E0,3.90086E2,6.9461845E1,1.5259216E0,3.8866383E1,3.3377463E2,5.631138E1,2.1525608E1,4.7936234E1,3.5025414E1,3.840968E0,5.650398E0,3.281242E2,4.9849014E1,6.4623666E0,9.27226E0,1.2253348E1,1.1450912E0,4.6791145E1,3.392721E1,1.0982019E0,1.0920833E0,2.7488847E0,1.0819911E0,4.5684066E0,3.3444333E0,4.650458E1,1.544465E0,4.9179015E0,2.5945735E0,6.677686E0,1.6010761E0,1.0652272E1,1.0452037E0,4.574594E1],"tree_param":{"num_deleted":"0","num_feature":"90","num_nodes":"41","size_leaf_vector":"1"}},{"base_weights":[-8.847882E-1,-1.0480933E0,8.280937E-1,2.6032293E-1,-1.0600191E0,9.899448E-1,-2.8133854E-1,-1.1270168E0,-6.7311627E-1,-1.9961034E-1,1.0699934E0,-1.1536641E0,-9.516964E-1,2.9238388E-1,-1.1037861E0,1.1402829E0,3.2588565E-1,-6.8692636E-1,-3.4787697E-1,-1.0537604E0,-1.2869318E-1,-4.799365E-1,8.689244E-1,-1.8079787E-2,-1.1275282E0,3.467178E-1,1.0192659E-1,-2.4409519E-1,2.6246423E-1,1.0695063E-1,-2.8610885E-1,-4.542486E-2,-3.3423007E-1,5.787858E-1,-2.9753906E-1,1.905662E-1,-2.8185758E-1,-2.3041146E-1,3.4792915E-1,-8.594574E-2,-3.420614E-1],"categories":[],"categories_nodes":[],"categories_segments":[],"categories_sizes":[],"default_left":[0,0,0,0,0,0,0,0,0,0,0,0,0,0,0,0,0,0,0,0,0,0,0,0,0,0,0,0,0,0,0,0,0,0,0,0,0,0,0,0,0],"id":9,"left_children":[1,3,5,-1,7,9,-1,11,13,-1,15,17,19,21,23,25,27,29,-1,31,33,35,37,-1,39,-1,-1,-1,-1,-1,-1,-1,-1,-1,-1,-1,-1,-1,-1,-1,-1],"loss_changes":[1.4257993E2,1.1497498E1,1.3691273E1,0E0,1.1179565E1,6.19664E0,0E0,7.2909546E-1,2.9621595E1,0E0,1.7135315E0,1.2945557E-1,4.678486E0,1.0447095E1,1.1444626E0,5.2700043E-2,3.7403557E0,2.1911669E0,0E0,2.5998955E0,1.516848E1,5.861479E0,7.200572E0,0E0,1.8286514E-1,0E0,0E0,0E0,0E0,0E0,0E0,0E0,0E0,0E0,0E0,0E0,0E0,0E0,0E0,0E0,0E0],"parents":[2147483647,0,0,1,1,2,2,4,4,5,5,7,7,8,8,10,10,11,11,12,12,13,13,14,14,15,15,16,16,17,17,19,19,20,20,21,21,22,22,24,24],"right_children":[2,4,6,-1,8,10,-1,12,14,-1,16,18,20,22,24,26,28,30,-1,32,34,36,38,-1,40,-1,-1,-1,-1,-1,-1,-1,-1,-1,-1,-1,-1,-1,-1,-1,-1],"split_conditions":[4.3538E4,3.356399E-1,7.604166E3,2.6032293E-1,3.912189E-1,1.0979302E0,-2.8133854E-1,5.226919E-1,1.183926E0,-1.9961034E-1,1.5436294E0,7.062E3,4.2877217E3,9.0501434E-1,2.1482947E0,3.903327E-1,5.5122013E0,7.818174E-1,-3.4787697E-1,7.8698805E4,1.1722502E0,5.238224E-1,1.0841957E0,-1.8079787E-2,1.2943553E5,3.467178E-1,1.0192659E-1,-2.4409519E-1,2.6246423E-1,1.0695063E-1,-2.8610885E-1,-4.542486E-2,-3.3423007E-1,5.787858E-1,-2.9753906E-1,1.905662E-1,-2.8185758E-1,-2.3041146E-1,3.4792915E-1,-8.594574E-2,-3.420614E-1],"split_indices":[56,67,68,0,37,23,0,30,66,0,3,26,81,60,49,71,19,0,0,62,66,7,36,0,18,0,0,0,0,0,0,0,0,0,0,0,0,0,0,0,0],"split_type":[0,0,0,0,0,0,0,0,0,0,0,0,0,0,0,0,0,0,0,0,0,0,0,0,0,0,0,0,0,0,0,0,0,0,0,0,0,0,0,0,0],"sum_hessian":[5.056167E2,4.6196167E2,4.365503E1,2.413909E0,4.5954776E2,4.039231E1,3.2627184E0,3.9008594E2,6.9461845E1,1.5259215E0,3.886639E1,3.3377457E2,5.631137E1,2.1525606E1,4.7936237E1,3.502542E1,3.8409686E0,5.650397E0,3.2812415E2,4.9849007E1,6.4623666E0,9.27226E0,1.2253347E1,1.1450912E0,4.6791145E1,3.392722E1,1.0982021E0,1.0920833E0,2.7488852E0,1.0819908E0,4.5684056E0,3.344433E0,4.6504574E1,1.544465E0,4.9179015E0,2.5945737E0,6.677686E0,1.6010761E0,1.0652271E1,1.0452037E0,4.5745945E1],"tree_param":{"num_deleted":"0","num_feature":"90","num_nodes":"41","size_leaf_vector":"1"}},{"base_weights":[8.331594E-1,9.8554975E-1,-7.917083E-1,1.100392E0,7.163777E-1,-9.298838E-1,2.4465396E-1,1.1031765E0,6.542368E-2,2.816207E-1,1.073068E0,1.8235755E-1,-1.0187091E0,6.511007E-1,3.3312905E-1,8.159042E-1,-3.188088E-1,5.3306047E-2,1.0861611E0,-1.7893996E-2,-1.0507156E0,-1.263519E-1,2.7868515E-1,-1.9669177E-1,9.4545865E-1,7.651478E-1,-8.7592E-1,7.550757E-2,1.0965441E0,-3.2990348E-1,-2.534834E-1,3.0459246E-1,-1.1613135E-1,3.1469125E-1,-2.0578009E-1,-3.5087174E-1,6.953209E-2,3.3192202E-1,1.05094366E-1,5.68351E-2,-1.6966766E-1],"categories":[],"categories_nodes":[],"categories_segments":[],"categories_sizes":[],"default_left":[0,0,0,0,0,0,0,0,0,0,0,0,0,0,0,0,0,0,0,0,0,0,0,0,0,0,0,0,0,0,0,0,0,0,0,0,0,0,0,0,0],"id":10,"left_children":[1,3,5,7,9,11,-1,13,-1,15,17,-1,19,21,-1,23,25,-1,27,-1,29,-1,-1,-1,31,33,35,-1,37,-1,39,-1,-1,-1,-1,-1,-1,-1,-1,-1,-1],"loss_changes":[9.90101E1,1.0437042E1,8.43556E0,3.8015747E-1,1.6982891E1,5.0311565E0,0E0,1.0217285E-1,0E0,1.6810303E1,5.206375E-1,0E0,8.8615036E-1,2.2953894E0,0E0,5.877844E0,1.57737E1,0E0,2.4214172E-1,0E0,8.865051E-1,0E0,0E0,0E0,2.7905254E0,4.4362106E0,5.796298E0,0E0,4.4914246E-2,0E0,5.2554256E-1,0E0,0E0,0E0,0E0,0E0,0E0,0E0,0E0,0E0,0E0],"parents":[2147483647,0,0,1,1,2,2,3,3,4,4,5,5,7,7,9,9,10,10,12,12,13,13,15,15,16,16,18,18,20,20,24,24,25,25,26,26,28,28,30,30],"right_children":[2,4,6,8,10,12,-1,14,-1,16,18,-1,20,22,-1,24,26,-1,28,-1,30,-1,-1,-1,32,34,36,-1,38,-1,40,-1,-1,-1,-1,-1,-1,-1,-1,-1,-1],"split_conditions":[4.4844E4,3.8371405E-1,7.604166E3,6.970859E4,1.1862545E0,5.547E3,2.4465396E-1,7.062E3,6.542368E-2,-3.483095E-1,2.0246985E0,1.8235755E-1,1.1170706E0,2.0802087E3,3.3312905E-1,5.9583867E-1,4.490213E3,5.3306047E-2,1.1867168E-1,-1.7893996E-2,1.0387468E0,-1.263519E-1,2.7868515E-1,-1.9669177E-1,5.3419447E-1,2.5747982E1,4.2936E4,7.550757E-2,1.3242327E5,-3.2990348E-1,1.465E3,3.0459246E-1,-1.1613135E-1,3.1469125E-1,-2.0578009E-1,-3.5087174E-1,6.953209E-2,3.3192202E-1,1.05094366E-1,5.68351E-2,-1.6966766E-1],"split_indices":[56,33,68,32,66,42,0,26,0,24,49,0,23,51,0,60,8,0,40,0,33,0,0,0,37,74,29,0,32,0,89,0,0,0,0,0,0,0,0,0,0],"split_type":[0,0,0,0,0,0,0,0,0,0,0,0,0,0,0,0,0,0,0,0,0,0,0,0,0,0,0,0,0,0,0,0,0,0,0,0,0,0,0,0,0],"sum_hessian":[3.957052E2,3.621353E2,3.3569878E1,2.5167157E2,1.10463745E2,3.1300367E1,2.2695105E0,2.506303E2,1.0412786E0,5.059043E1,5.9873314E1,1.3901858E0,2.9910181E1,5.3912115E0,2.4523907E2,2.657986E1,2.401057E1,1.0729065E0,5.8800407E1,1.0584258E0,2.8851757E1,1.0033331E0,4.3878784E0,1.8221589E0,2.47577E1,8.024362E0,1.5986208E1,1.0328435E0,5.7767563E1,2.682491E1,2.0268464E0,2.3750824E1,1.0068777E0,6.9433866E0,1.0809747E0,1.2592137E1,3.3940713E0,5.6537674E1,1.2298893E0,1.000192E0,1.0266544E0],"tree_param":{"num_deleted":"0","num_feature":"90","num_nodes":"41","size_leaf_vector":"1"}},{"base_weights":[-8.331592E-1,-9.855496E-1,7.917085E-1,-1.100392E0,-7.163777E-1,9.298839E-1,-2.4465391E-1,-1.1031764E0,-6.54237E-2,-2.8162065E-1,-1.073068E0,-1.8235756E-1,1.0187092E0,-6.511005E-1,-3.3312905E-1,-8.1590414E-1,3.1880882E-1,-5.3306047E-2,-1.0861611E0,1.7894011E-2,1.0507157E0,1.2635198E-1,-2.7868512E-1,1.9669178E-1,-9.4545865E-1,-7.6514775E-1,8.7591994E-1,-7.550753E-2,-1.0965441E0,3.2990354E-1,2.5348356E-1,-3.0459246E-1,1.1613136E-1,-3.1469125E-1,2.0578013E-1,3.5087174E-1,-6.953212E-2,-3.3192202E-1,-1.050943E-1,-5.6835085E-2,1.6966772E-1],"categories":[],"categories_nodes":[],"categories_segments":[],"categories_sizes":[],"default_left":[0,0,0,0,0,0,0,0,0,0,0,0,0,0,0,0,0,0,0,0,0,0,0,0,0,0,0,0,0,0,0,0,0,0,0,0,0,0,0,0,0],"id":11,"left_children":[1,3,5,7,9,11,-1,13,-1,15,17,-1,19,21,-1,23,25,-1,27,-1,29,-1,-1,-1,31,33,35,-1,37,-1,39,-1,-1,-1,-1,-1,-1,-1,-1,-1,-1],"loss_changes":[9.901016E1,1.0437042E1,8.43556E0,3.8015747E-1,1.6982883E1,5.0311527E0,0E0,1.0217285E-1,0E0,1.6810307E1,5.206375E-1,0E0,8.861542E-1,2.2953885E0,0E0,5.877842E0,1.5773699E1,0E0,2.421341E-1,0E0,8.8650894E-1,0E0,0E0,0E0,2.7905273E0,4.43621E0,5.796302E0,0E0,4.4921875E-2,0E0,5.255426E-1,0E0,0E0,0E0,0E0,0E0,0E0,0E0,0E0,0E0,0E0],"parents":[2147483647,0,0,1,1,2,2,3,3,4,4,5,5,7,7,9,9,10,10,12,12,13,13,15,15,16,16,18,18,20,20,24,24,25,25,26,26,28,28,30,30],"right_children":[2,4,6,8,10,12,-1,14,-1,16,18,-1,20,22,-1,24,26,-1,28,-1,30,-1,-1,-1,32,34,36,-1,38,-1,40,-1,-1,-1,-1,-1,-1,-1,-1,-1,-1],"split_conditions":[4.4844E4,3.8371405E-1,7.604166E3,6.970859E4,1.1862545E0,5.547E3,-2.4465391E-1,7.062E3,-6.54237E-2,-3.483095E-1,2.0246985E0,-1.8235756E-1,1.1170706E0,2.0802087E3,-3.3312905E-1,5.9583867E-1,4.490213E3,-5.3306047E-2,1.1867168E-1,1.7894011E-2,1.0387468E0,1.2635198E-1,-2.7868512E-1,1.9669178E-1,5.3419447E-1,2.5747982E1,4.2936E4,-7.550753E-2,1.3242327E5,3.2990354E-1,1.465E3,-3.0459246E-1,1.1613136E-1,-3.1469125E-1,2.0578013E-1,3.5087174E-1,-6.953212E-2,-3.3192202E-1,-1.050943E-1,-5.6835085E-2,1.6966772E-1],"split_indices":[56,33,68,32,66,42,0,26,0,24,49,0,23,51,0,60,8,0,40,0,33,0,0,0,37,74,29,0,32,0,89,0,0,0,0,0,0,0,0,0,0],"split_type":[0,0,0,0,0,0,0,0,0,0,0,0,0,0,0,0,0,0,0,0,0,0,0,0,0,0,0,0,0,0,0,0,0,0,0,0,0,0,0,0,0],"sum_hessian":[3.9570514E2,3.6213525E2,3.356989E1,2.516715E2,1.10463745E2,3.130038E1,2.2695098E0,2.5063022E2,1.0412787E0,5.0590435E1,5.9873314E1,1.3901858E0,2.9910194E1,5.391209E0,2.45239E2,2.657986E1,2.4010572E1,1.0729065E0,5.8800407E1,1.0584259E0,2.8851768E1,1.0033327E0,4.3878765E0,1.8221592E0,2.4757702E1,8.024362E0,1.5986211E1,1.0328434E0,5.7767563E1,2.682492E1,2.026847E0,2.3750824E1,1.0068777E0,6.943387E0,1.0809746E0,1.2592139E1,3.3940723E0,5.6537674E1,1.2298893E0,1.000192E0,1.0266548E0],"tree_param":{"num_deleted":"0","num_feature":"90","num_nodes":"41","size_leaf_vector":"1"}},{"base_weights":[7.9040986E-1,9.403736E-1,-6.9696754E-1,1.0626178E0,6.6470665E-1,-8.526604E-1,2.3614272E-1,5.411979E-1,1.0731733E0,2.520468E-1,1.0362128E0,1.9126728E-1,-9.3945587E-1,-1.6093875E-1,2.6474267E-1,3.2269973E-1,9.444181E-2,7.3207676E-1,-2.6358813E-1,1.0531967E0,4.5425043E-2,-1.0277882E0,-1.8314347E-1,-2.9343444E-1,9.367638E-1,3.7379912E-1,-1.1183769E0,7.1192324E-2,3.2015488E-1,-3.1635606E-1,-1.0285417E-1,2.0637499E-1,-2.1855035E-1,-2.9570568E-1,2.0496859E-1,3.010718E-1,-2.3237776E-2,2.422084E-1,-1.587742E-1,-4.3888953E-1,-5.0263084E-2],"categories":[],"categories_nodes":[],"categories_segments":[],"categories_sizes":[],"default_left":[0,0,0,0,0,0,0,0,0,0,0,0,0,0,0,0,0,0,0,0,0,0,0,0,0,0,0,0,0,0,0,0,0,0,0,0,0,0,0,0,0],"id":12,"left_children":[1,3,5,7,9,11,-1,13,15,17,19,-1,21,-1,-1,-1,-1,23,25,27,-1,29,31,33,35,37,39,-1,-1,-1,-1,-1,-1,-1,-1,-1,-1,-1,-1,-1,-1],"loss_changes":[6.9652985E1,8.77739E0,7.350361E0,4.83078E-1,1.3402817E1,4.0448875E0,0E0,2.6259503E0,1.7562866E-2,1.0971769E1,5.405235E-1,0E0,1.5206585E0,0E0,0E0,0E0,0E0,5.0643578E0,1.2257359E1,2.663803E-1,0E0,5.3869247E-2,2.3499632E0,3.755014E0,1.3827095E0,5.5945044E0,2.8782167E0,0E0,0E0,0E0,0E0,0E0,0E0,0E0,0E0,0E0,0E0,0E0,0E0,0E0,0E0],"parents":[2147483647,0,0,1,1,2,2,3,3,4,4,5,5,7,7,8,8,9,9,10,10,12,12,17,17,18,18,19,19,21,21,22,22,23,23,24,24,25,25,26,26],"right_children":[2,4,6,8,10,12,-1,14,16,18,20,-1,22,-1,-1,-1,-1,24,26,28,-1,30,32,34,36,38,40,-1,-1,-1,-1,-1,-1,-1,-1,-1,-1,-1,-1,-1,-1],"split_conditions":[4.3538E4,3.8371405E-1,7.604166E3,7.062E3,1.1862545E0,1.09144E0,2.3614272E-1,3.787E3,5.0908504E0,-3.4737492E-1,3.4556112E-1,1.9126728E-1,1.5436294E0,-1.6093875E-1,2.6474267E-1,3.2269973E-1,9.444181E-2,1.0433848E0,1.1512364E1,8.257464E2,4.5425043E-2,4.9253482E-1,3.0532568E0,7.848541E-1,2.738E4,1.6171E4,3.202E4,7.1192324E-2,3.2015488E-1,-3.1635606E-1,-1.0285417E-1,2.0637499E-1,-2.1855035E-1,-2.9570568E-1,2.0496859E-1,3.010718E-1,-2.3237776E-2,2.422084E-1,-1.587742E-1,-4.3888953E-1,-5.0263084E-2],"split_indices":[56,33,68,26,66,23,0,59,19,24,55,0,3,0,0,0,0,66,14,51,0,50,79,0,56,56,29,0,0,0,0,0,0,0,0,0,0,0,0,0,0],"split_type":[0,0,0,0,0,0,0,0,0,0,0,0,0,0,0,0,0,0,0,0,0,0,0,0,0,0,0,0,0,0,0,0,0,0,0,0,0,0,0,0,0],"sum_hessian":[3.0833313E2,2.8042706E2,2.7906088E1,1.92298E2,8.812906E1,2.564159E1,2.2644975E0,4.8527584E0,1.8744524E2,4.2547165E1,4.5581894E1,1.062014E0,2.4579576E1,1.0296102E0,3.8231483E0,1.864142E2,1.0310493E0,2.181694E1,2.0730223E1,4.4536674E1,1.045219E0,2.1687654E1,2.8919208E0,3.557881E0,1.825906E1,1.219759E1,8.532633E0,1.0534015E0,4.3483273E1,2.0353706E1,1.3339478E0,1.0128173E0,1.8791034E0,2.0766966E0,1.4811845E0,1.7140486E1,1.1185731E0,8.312587E0,3.8850033E0,5.8675733E0,2.6650603E0],"tree_param":{"num_deleted":"0","num_feature":"90","num_nodes":"41","size_leaf_vector":"1"}},{"base_weights":[-7.9040986E-1,-9.4037354E-1,6.969674E-1,-1.0626178E0,-6.6470677E-1,8.526603E-1,-2.3614271E-1,-5.411981E-1,-1.0731732E0,-2.5204688E-1,-1.0362129E0,-1.9126727E-1,9.3945575E-1,1.6093871E-1,-2.647427E-1,-3.226997E-1,-9.444176E-2,-7.320768E-1,2.6358804E-1,-1.0531968E0,-4.5425057E-2,1.027788E0,1.831433E-1,2.9343423E-1,-9.367639E-1,-3.737992E-1,1.1183769E0,-7.119235E-2,-3.2015488E-1,3.1635606E-1,1.02854125E-1,-2.06375E-1,2.1855034E-1,2.9570565E-1,-2.0496862E-1,-3.010718E-1,2.3237761E-2,-2.422084E-1,1.5877417E-1,4.3888953E-1,5.026304E-2],"categories":[],"categories_nodes":[],"categories_segments":[],"categories_sizes":[],"default_left":[0,0,0,0,0,0,0,0,0,0,0,0,0,0,0,0,0,0,0,0,0,0,0,0,0,0,0,0,0,0,0,0,0,0,0,0,0,0,0,0,0],"id":13,"left_children":[1,3,5,7,9,11,-1,13,15,17,19,-1,21,-1,-1,-1,-1,23,25,27,-1,29,31,33,35,37,39,-1,-1,-1,-1,-1,-1,-1,-1,-1,-1,-1,-1,-1,-1],"loss_changes":[6.965292E1,8.777374E0,7.350356E0,4.8309326E-1,1.3402817E1,4.0448895E0,0E0,2.6259503E0,1.7562866E-2,1.0971768E1,5.405235E-1,0E0,1.5206585E0,0E0,0E0,0E0,0E0,5.0643578E0,1.2257359E1,2.663765E-1,0E0,5.3869247E-2,2.3499632E0,3.755014E0,1.3827076E0,5.5945024E0,2.8782167E0,0E0,0E0,0E0,0E0,0E0,0E0,0E0,0E0,0E0,0E0,0E0,0E0,0E0,0E0],"parents":[2147483647,0,0,1,1,2,2,3,3,4,4,5,5,7,7,8,8,9,9,10,10,12,12,17,17,18,18,19,19,21,21,22,22,23,23,24,24,25,25,26,26],"right_children":[2,4,6,8,10,12,-1,14,16,18,20,-1,22,-1,-1,-1,-1,24,26,28,-1,30,32,34,36,38,40,-1,-1,-1,-1,-1,-1,-1,-1,-1,-1,-1,-1,-1,-1],"split_conditions":[4.3538E4,3.8371405E-1,7.604166E3,7.062E3,1.1862545E0,1.09144E0,-2.3614271E-1,3.787E3,5.0908504E0,-3.4737492E-1,3.4556112E-1,-1.9126727E-1,1.5436294E0,1.6093871E-1,-2.647427E-1,-3.226997E-1,-9.444176E-2,1.0433848E0,1.1512364E1,8.257464E2,-4.5425057E-2,4.9253482E-1,3.0532568E0,7.848541E-1,2.738E4,1.6171E4,3.202E4,-7.119235E-2,-3.2015488E-1,3.1635606E-1,1.02854125E-1,-2.06375E-1,2.1855034E-1,2.9570565E-1,-2.0496862E-1,-3.010718E-1,2.3237761E-2,-2.422084E-1,1.5877417E-1,4.3888953E-1,5.026304E-2],"split_indices":[56,33,68,26,66,23,0,59,19,24,55,0,3,0,0,0,0,66,14,51,0,50,79,0,56,56,29,0,0,0,0,0,0,0,0,0,0,0,0,0,0],"split_type":[0,0,0,0,0,0,0,0,0,0,0,0,0,0,0,0,0,0,0,0,0,0,0,0,0,0,0,0,0,0,0,0,0,0,0,0,0,0,0,0,0],"sum_hessian":[3.0833304E2,2.8042697E2,2.7906076E1,1.9229791E2,8.812907E1,2.5641579E1,2.2644973E0,4.85276E0,1.8744514E2,4.254716E1,4.5581905E1,1.062014E0,2.4579565E1,1.0296103E0,3.8231494E0,1.864141E2,1.0310489E0,2.181694E1,2.0730223E1,4.453669E1,1.045219E0,2.1687645E1,2.89192E0,3.557881E0,1.825906E1,1.219759E1,8.532632E0,1.0534016E0,4.3483288E1,2.0353697E1,1.3339474E0,1.0128171E0,1.879103E0,2.0766964E0,1.4811847E0,1.7140486E1,1.1185731E0,8.312588E0,3.8850029E0,5.8675723E0,2.6650596E0],"tree_param":{"num_deleted":"0","num_feature":"90","num_nodes":"41","size_leaf_vector":"1"}},{"base_weights":[7.5261307E-1,9.160098E-1,-5.143735E-1,-2.2394954E-1,9.333445E-1,-7.154939E-1,2.4835178E-1,1.0409769E0,6.604274E-1,1.6660959E-1,-8.405127E-1,4.1360733E-1,3.159447E-1,2.637166E-1,1.0217942E0,-9.7837836E-1,9.963828E-2,-1.2869845E-1,2.3353839E-1,5.54272E-1,-5.8240414E-1,3.1079102E-1,9.235065E-2,-3.117113E-1,5.992899E-3,2.1024042E-1,-1.8553302E-1,2.3866956E-1,-5.219013E-2,-3.4256902E-1,1.749616E-1],"categories":[],"categories_nodes":[],"categories_segments":[],"categories_sizes":[],"default_left":[0,0,0,0,0,0,0,0,0,0,0,0,0,0,0,0,0,0,0,0,0,0,0,0,0,0,0,0,0,0,0],"id":14,"left_children":[1,3,5,-1,7,9,-1,11,13,-1,15,17,-1,19,21,23,25,-1,-1,27,29,-1,-1,-1,-1,-1,-1,-1,-1,-1,-1],"loss_changes":[5.029698E1,6.850937E0,8.186959E0,0E0,5.533676E0,4.4394617E0,0E0,7.110138E-1,8.709898E0,0E0,3.0996704E0,1.7187489E0,0E0,7.9945707E0,9.319305E-3,1.2496738E0,2.103927E0,0E0,0E0,4.310204E0,6.186E0,0E0,0E0,0E0,0E0,0E0,0E0,0E0,0E0,0E0,0E0],"parents":[2147483647,0,0,1,1,2,2,4,4,5,5,7,7,8,8,10,10,11,11,13,13,14,14,15,15,16,16,19,19,20,20],"right_children":[2,4,6,-1,8,10,-1,12,14,-1,16,18,-1,20,22,24,26,-1,-1,28,30,-1,-1,-1,-1,-1,-1,-1,-1,-1,-1],"split_conditions":[6.1460185E-1,3.356399E-1,7.604166E3,-2.2394954E-1,5.226919E-1,1.09144E0,2.4835178E-1,7.062E3,1.183926E0,1.6660959E-1,-6.964134E-3,1.0188884E-1,3.159447E-1,3.0027635E0,4.1885865E-1,3.4787834E5,1.4986008E5,-1.2869845E-1,2.3353839E-1,6.454365E-1,1.7256168E1,3.1079102E-1,9.235065E-2,-3.117113E-1,5.992899E-3,2.1024042E-1,-1.8553302E-1,2.3866956E-1,-5.219013E-2,-3.4256902E-1,1.749616E-1],"split_indices":[37,67,68,0,30,23,0,26,66,0,52,63,0,75,63,78,32,0,0,30,44,0,0,0,0,0,0,0,0,0,0],"split_type":[0,0,0,0,0,0,0,0,0,0,0,0,0,0,0,0,0,0,0,0,0,0,0,0,0,0,0,0,0,0,0],"sum_hessian":[2.396796E2,2.125457E2,2.7133904E1,1.7592405E0,2.1078645E2,2.4004013E1,3.1298904E0,1.4915054E2,6.1635902E1,1.8415699E0,2.2162443E1,3.5044656E0,1.4564609E2,3.0205685E1,3.143022E1,1.9292667E1,2.8697758E0,1.0058149E0,2.4986508E0,2.274131E1,7.4643736E0,3.0376072E1,1.0541472E0,1.8149183E1,1.1434836E0,1.5751541E0,1.2946217E0,1.7012106E1,5.7292047E0,5.0572414E0,2.4071321E0],"tree_param":{"num_deleted":"0","num_feature":"90","num_nodes":"31","size_leaf_vector":"1"}},{"base_weights":[-7.526131E-1,-9.160098E-1,5.1437336E-1,2.239495E-1,-9.333445E-1,7.154938E-1,-2.4835177E-1,-1.0409769E0,-6.604274E-1,-1.6660957E-1,8.4051263E-1,-4.136076E-1,-3.159447E-1,-2.6371664E-1,-1.0217942E0,9.783783E-1,-9.9638164E-2,1.2869836E-1,-2.3353843E-1,-5.54272E-1,5.8240414E-1,-3.1079102E-1,-9.2350625E-2,3.117113E-1,-5.992934E-3,-2.1024038E-1,1.8553302E-1,-2.3866956E-1,5.219012E-2,3.4256902E-1,-1.749616E-1],"categories":[],"categories_nodes":[],"categories_segments":[],"categories_sizes":[],"default_left":[0,0,0,0,0,0,0,0,0,0,0,0,0,0,0,0,0,0,0,0,0,0,0,0,0,0,0,0,0,0,0],"id":15,"left_children":[1,3,5,-1,7,9,-1,11,13,-1,15,17,-1,19,21,23,25,-1,-1,27,29,-1,-1,-1,-1,-1,-1,-1,-1,-1,-1],"loss_changes":[5.029698E1,6.8509216E0,8.186958E0,0E0,5.5336914E0,4.4394617E0,0E0,7.110138E-1,8.709898E0,0E0,3.0996685E0,1.7187486E0,0E0,7.9945707E0,9.315491E-3,1.24967E0,2.1039262E0,0E0,0E0,4.310203E0,6.186E0,0E0,0E0,0E0,0E0,0E0,0E0,0E0,0E0,0E0,0E0],"parents":[2147483647,0,0,1,1,2,2,4,4,5,5,7,7,8,8,10,10,11,11,13,13,14,14,15,15,16,16,19,19,20,20],"right_children":[2,4,6,-1,8,10,-1,12,14,-1,16,18,-1,20,22,24,26,-1,-1,28,30,-1,-1,-1,-1,-1,-1,-1,-1,-1,-1],"split_conditions":[6.1460185E-1,3.356399E-1,7.604166E3,2.239495E-1,5.226919E-1,1.09144E0,-2.4835177E-1,7.062E3,1.183926E0,-1.6660957E-1,-6.964134E-3,1.0188884E-1,-3.159447E-1,3.0027635E0,4.1885865E-1,3.4787834E5,1.4986008E5,1.2869836E-1,-2.3353843E-1,6.454365E-1,1.7256168E1,-3.1079102E-1,-9.2350625E-2,3.117113E-1,-5.992934E-3,-2.1024038E-1,1.8553302E-1,-2.3866956E-1,5.219012E-2,3.4256902E-1,-1.749616E-1],"split_indices":[37,67,68,0,30,23,0,26,66,0,52,63,0,75,63,78,32,0,0,30,44,0,0,0,0,0,0,0,0,0,0],"split_type":[0,0,0,0,0,0,0,0,0,0,0,0,0,0,0,0,0,0,0,0,0,0,0,0,0,0,0,0,0,0,0],"sum_hessian":[2.3967958E2,2.1254568E2,2.7133896E1,1.7592404E0,2.1078644E2,2.4004005E1,3.12989E0,1.4915053E2,6.1635906E1,1.84157E0,2.2162436E1,3.5044675E0,1.4564606E2,3.0205685E1,3.1430222E1,1.929266E1,2.8697755E0,1.0058153E0,2.4986522E0,2.274131E1,7.464374E0,3.0376076E1,1.0541469E0,1.8149178E1,1.1434834E0,1.5751537E0,1.2946217E0,1.7012106E1,5.729204E0,5.0572414E0,2.4071321E0],"tree_param":{"num_deleted":"0","num_feature":"90","num_nodes":"31","size_leaf_vector":"1"}},{"base_weights":[7.1598214E-1,9.003339E-1,-3.107799E-1,-4.545981E-1,9.2442375E-1,-6.1642075E-1,7.800885E-1,7.092826E-2,-2.5419384E-1,1.0186721E0,6.648666E-1,-8.700992E-1,-1.14273466E-1,3.5997012E-3,2.7338073E-1,3.5353753E-1,3.1035936E-1,9.239625E-1,1.1809959E-1,3.4143027E-2,-9.6031266E-1,-5.3863627E-1,4.324379E-1,2.2059192E-1,-1.2700187E-1,-3.339462E-2,9.634982E-1,-5.5799925E-1,8.680368E-1,-6.6626474E-2,-3.0063298E-1,-2.1391647E-1,2.1986576E-2,-1.1071934E-1,2.3912048E-1,-3.3450637E-3,3.0160144E-1,1.6374505E-1,-3.511458E-1,2.7672216E-1,7.7527285E-2],"categories":[],"categories_nodes":[],"categories_segments":[],"categories_sizes":[],"default_left":[0,0,0,0,0,0,0,0,0,0,0,0,0,0,0,0,0,0,0,0,0,0,0,0,0,0,0,0,0,0,0,0,0,0,0,0,0,0,0,0,0],"id":16,"left_children":[1,3,5,7,9,11,13,-1,-1,15,17,19,21,-1,-1,23,-1,25,27,-1,29,31,33,-1,-1,-1,35,37,39,-1,-1,-1,-1,-1,-1,-1,-1,-1,-1,-1,-1],"loss_changes":[3.581565E1,5.6236267E0,1.0256586E1,1.137977E0,3.162445E0,2.8892097E0,6.8010855E-1,0E0,0E0,8.290634E-1,6.222086E0,1.4794226E0,2.3269136E0,0E0,0E0,1.5441961E0,0E0,1.3423672E0,8.351179E0,0E0,2.1699905E-1,6.421323E-1,1.608989E0,0E0,0E0,0E0,1.2007217E0,6.5667486E0,1.8410683E-2,0E0,0E0,0E0,0E0,0E0,0E0,0E0,0E0,0E0,0E0,0E0,0E0],"parents":[2147483647,0,0,1,1,2,2,3,3,4,4,5,5,6,6,9,9,10,10,11,11,12,12,15,15,17,17,18,18,20,20,21,21,22,22,26,26,27,27,28,28],"right_children":[2,4,6,8,10,12,14,-1,-1,16,18,20,22,-1,-1,24,-1,26,28,-1,30,32,34,-1,-1,-1,36,38,40,-1,-1,-1,-1,-1,-1,-1,-1,-1,-1,-1,-1],"split_conditions":[5.3419447E-1,3.7572095E-1,7.488576E3,2.5668395E0,5.226919E-1,-8.483597E-3,1.2593569E0,7.092826E-2,-2.5419384E-1,7.062E3,-3.1875217E-1,1.0979302E0,2.9761906E0,3.5997012E-3,2.7338073E-1,1.14004266E5,3.1035936E-1,8.2191944E-1,1.1722502E0,3.4143027E-2,8.399138E-1,2.9593E4,2.085403E5,2.2059192E-1,-1.2700187E-1,-3.339462E-2,1.1208602E0,6.2342E4,8.10941E4,-6.6626474E-2,-3.0063298E-1,-2.1391647E-1,2.1986576E-2,-1.1071934E-1,2.3912048E-1,-3.3450637E-3,3.0160144E-1,1.6374505E-1,-3.511458E-1,2.7672216E-1,7.7527285E-2],"split_indices":[37,67,68,49,30,52,66,0,0,26,24,23,16,0,0,62,0,83,66,0,30,27,48,0,0,0,6,28,32,0,0,0,0,0,0,0,0,0,0,0,0],"split_type":[0,0,0,0,0,0,0,0,0,0,0,0,0,0,0,0,0,0,0,0,0,0,0,0,0,0,0,0,0,0,0,0,0,0,0,0,0,0,0,0,0],"sum_hessian":[1.8673686E2,1.5841678E2,2.832008E1,2.4551666E0,1.5596162E2,2.2461668E1,5.8584113E0,1.0338888E0,1.4212778E0,1.1227025E2,4.369137E1,1.4436017E1,8.025651E0,1.0138108E0,4.8446007E0,3.1569927E0,1.0911326E2,2.9175938E1,1.451543E1,1.1904846E0,1.3245533E1,4.526729E0,3.4989219E0,2.1526558E0,1.004337E0,1.006418E0,2.816952E1,7.7681065E0,6.7473245E0,1.0480626E0,1.2197471E1,3.3940492E0,1.1326802E0,1.0902524E0,2.4086695E0,1.1896847E0,2.6979834E1,2.8110027E0,4.9571037E0,5.7237306E0,1.0235937E0],"tree_param":{"num_deleted":"0","num_feature":"90","num_nodes":"41","size_leaf_vector":"1"}},{"base_weights":[-7.1598214E-1,-9.0033394E-1,3.1077987E-1,4.5459807E-1,-9.2442375E-1,6.164207E-1,-7.800885E-1,-7.092827E-2,2.5419384E-1,-1.0186721E0,-6.6486675E-1,8.700992E-1,1.1427332E-1,-3.5997238E-3,-2.7338076E-1,-3.5353732E-1,-3.1035936E-1,-9.2396253E-1,-1.1809969E-1,-3.414303E-2,9.6031266E-1,5.3863615E-1,-4.3243796E-1,-2.2059189E-1,1.2700193E-1,3.3394624E-2,-9.6349823E-1,5.579993E-1,-8.6803687E-1,6.6626444E-2,3.0063298E-1,2.1391644E-1,-2.1986593E-2,1.1071933E-1,-2.391205E-1,3.3450616E-3,-3.0160147E-1,-1.6374502E-1,3.511458E-1,-2.7672216E-1,-7.752736E-2],"categories":[],"categories_nodes":[],"categories_segments":[],"categories_sizes":[],"default_left":[0,0,0,0,0,0,0,0,0,0,0,0,0,0,0,0,0,0,0,0,0,0,0,0,0,0,0,0,0,0,0,0,0,0,0,0,0,0,0,0,0],"id":17,"left_children":[1,3,5,7,9,11,13,-1,-1,15,17,19,21,-1,-1,23,-1,25,27,-1,29,31,33,-1,-1,-1,35,37,39,-1,-1,-1,-1,-1,-1,-1,-1,-1,-1,-1,-1],"loss_changes":[3.5815666E1,5.6236115E0,1.0256589E1,1.1379774E0,3.1624603E0,2.8892126E0,6.8010855E-1,0E0,0E0,8.2907104E-1,6.222086E0,1.4794226E0,2.3269134E0,0E0,0E0,1.5441962E0,0E0,1.3423672E0,8.351182E0,0E0,2.1700096E-1,6.421324E-1,1.6089888E0,0E0,0E0,0E0,1.2007198E0,6.5667467E0,1.841116E-2,0E0,0E0,0E0,0E0,0E0,0E0,0E0,0E0,0E0,0E0,0E0,0E0],"parents":[2147483647,0,0,1,1,2,2,3,3,4,4,5,5,6,6,9,9,10,10,11,11,12,12,15,15,17,17,18,18,20,20,21,21,22,22,26,26,27,27,28,28],"right_children":[2,4,6,8,10,12,14,-1,-1,16,18,20,22,-1,-1,24,-1,26,28,-1,30,32,34,-1,-1,-1,36,38,40,-1,-1,-1,-1,-1,-1,-1,-1,-1,-1,-1,-1],"split_conditions":[5.3419447E-1,3.7572095E-1,7.488576E3,2.5668395E0,5.226919E-1,-8.483597E-3,1.2593569E0,-7.092827E-2,2.5419384E-1,7.062E3,-3.1875217E-1,1.0979302E0,2.9761906E0,-3.5997238E-3,-2.7338076E-1,1.14004266E5,-3.1035936E-1,8.2191944E-1,1.1722502E0,-3.414303E-2,8.399138E-1,2.9593E4,2.085403E5,-2.2059189E-1,1.2700193E-1,3.3394624E-2,1.1208602E0,6.2342E4,8.10941E4,6.6626444E-2,3.0063298E-1,2.1391644E-1,-2.1986593E-2,1.1071933E-1,-2.391205E-1,3.3450616E-3,-3.0160147E-1,-1.6374502E-1,3.511458E-1,-2.7672216E-1,-7.752736E-2],"split_indices":[37,67,68,49,30,52,66,0,0,26,24,23,16,0,0,62,0,83,66,0,30,27,48,0,0,0,6,28,32,0,0,0,0,0,0,0,0,0,0,0,0],"split_type":[0,0,0,0,0,0,0,0,0,0,0,0,0,0,0,0,0,0,0,0,0,0,0,0,0,0,0,0,0,0,0,0,0,0,0,0,0,0,0,0,0],"sum_hessian":[1.8673691E2,1.5841681E2,2.8320086E1,2.4551673E0,1.5596165E2,2.2461674E1,5.8584127E0,1.0338892E0,1.421278E0,1.1227027E2,4.3691376E1,1.4436022E1,8.025652E0,1.0138111E0,4.8446016E0,3.156992E0,1.0911328E2,2.9175945E1,1.4515432E1,1.1904849E0,1.3245537E1,4.526729E0,3.4989226E0,2.1526551E0,1.0043367E0,1.006418E0,2.8169527E1,7.768106E0,6.7473264E0,1.0480629E0,1.21974745E1,3.3940487E0,1.1326803E0,1.0902525E0,2.40867E0,1.1896847E0,2.6979843E1,2.8110025E0,4.9571033E0,5.723732E0,1.0235943E0],"tree_param":{"num_deleted":"0","num_feature":"90","num_nodes":"41","size_leaf_vector":"1"}},{"base_weights":[6.790062E-1,8.640992E-1,-2.765838E-1,3.0616787E-1,5.939476E-1,-5.2747494E-1,2.507744E-1,-4.7414538E-1,7.2282904E-1,-8.04042E-1,-3.8346335E-2,-3.3090603E-1,2.0023447E-1,-6.2173283E-1,8.191606E-1,2.8618252E-2,-9.011257E-1,-4.0370885E-1,5.0616413E-1,-4.1711572E-1,1.0951779E-1,2.9373217E-1,4.098779E-1,-2.9027367E-1,-2.6211547E-2,-2.0983516E-1,1.3584985E-1,1.4935521E-2,2.0015226E-1,2.4894299E-1,-1.5668657E-1],"categories":[],"categories_nodes":[],"categories_segments":[],"categories_sizes":[],"default_left":[0,0,0,0,0,0,0,0,0,0,0,0,0,0,0,0,0,0,0,0,0,0,0,0,0,0,0,0,0,0,0],"id":18,"left_children":[1,3,5,-1,7,9,-1,11,13,15,17,-1,-1,19,21,-1,23,25,27,-1,-1,-1,29,-1,-1,-1,-1,-1,-1,-1,-1],"loss_changes":[2.6249214E1,4.611252E0,7.3126383E0,0E0,6.903843E0,2.7696943E0,0E0,4.8540845E0,6.069336E0,1.236371E0,1.9008646E0,0E0,0E0,3.1155996E0,2.2491932E0,0E0,5.636625E-1,1.7504073E0,2.5101167E-1,0E0,0E0,0E0,5.560104E0,0E0,0E0,0E0,0E0,0E0,0E0,0E0,0E0],"parents":[2147483647,0,0,1,1,2,2,4,4,5,5,7,7,8,8,9,9,10,10,13,13,14,14,16,16,17,17,18,18,22,22],"right_children":[2,4,6,-1,8,10,-1,12,14,16,18,-1,-1,20,22,-1,24,26,28,-1,-1,-1,30,-1,-1,-1,-1,-1,-1,-1,-1],"split_conditions":[5.3419447E-1,3.5074E-1,7.604166E3,3.0616787E-1,7.8698805E4,-8.435827E-3,2.507744E-1,7.6555246E-1,7.063E3,1.0979302E0,-1.9666407E-1,-3.3090603E-1,2.0023447E-1,2.4758E4,-3.1875217E-1,2.8618252E-2,3.3602073E3,1.691E3,1.5402092E-1,-4.1711572E-1,1.0951779E-1,2.9373217E-1,9.323306E-3,-2.9027367E-1,-2.6211547E-2,-2.0983516E-1,1.3584985E-1,1.4935521E-2,2.0015226E-1,2.4894299E-1,-1.5668657E-1],"split_indices":[37,33,68,0,62,52,0,0,26,23,84,0,0,29,24,0,81,13,40,0,0,0,22,0,0,0,0,0,0,0,0],"split_type":[0,0,0,0,0,0,0,0,0,0,0,0,0,0,0,0,0,0,0,0,0,0,0,0,0,0,0,0,0,0,0],"sum_hessian":[1.4605592E2,1.22436356E2,2.361956E1,7.5773705E1,4.666265E1,1.970218E1,3.9173799E0,4.735847E0,4.1926804E1,1.2174533E1,7.527647E0,3.0754497E0,1.6603974E0,2.4383972E0,3.9488407E1,1.1877731E0,1.098676E1,4.659644E0,2.868003E0,1.140792E0,1.2976052E0,2.739159E1,1.2096818E1,9.982531E0,1.0042292E0,3.6000438E0,1.0596002E0,1.0893816E0,1.7786213E0,8.415515E0,3.6813033E0],"tree_param":{"num_deleted":"0","num_feature":"90","num_nodes":"31","size_leaf_vector":"1"}},{"base_weights":[-6.7900634E-1,-8.6409914E-1,2.7658334E-1,-3.0616787E-1,-5.939476E-1,5.274746E-1,-2.5077444E-1,4.7414538E-1,-7.2282904E-1,8.040417E-1,3.834626E-2,3.3090603E-1,-2.0023447E-1,6.21733E-1,-8.191606E-1,-2.8618237E-2,9.0112555E-1,4.0370876E-1,-5.0616413E-1,4.1711572E-1,-1.0951775E-1,-2.9373217E-1,-4.0987793E-1,2.9027364E-1,2.6211424E-2,2.0983513E-1,-1.3584983E-1,-1.4935503E-2,-2.0015226E-1,-2.4894299E-1,1.5668654E-1],"categories":[],"categories_nodes":[],"categories_segments":[],"categories_sizes":[],"default_left":[0,0,0,0,0,0,0,0,0,0,0,0,0,0,0,0,0,0,0,0,0,0,0,0,0,0,0,0,0,0,0],"id":19,"left_children":[1,3,5,-1,7,9,-1,11,13,15,17,-1,-1,19,21,-1,23,25,27,-1,-1,-1,29,-1,-1,-1,-1,-1,-1,-1,-1],"loss_changes":[2.6249176E1,4.611252E0,7.312634E0,0E0,6.903843E0,2.7696896E0,0E0,4.8540845E0,6.069338E0,1.236371E0,1.9008639E0,0E0,0E0,3.115598E0,2.2491932E0,0E0,5.636635E-1,1.7504067E0,2.5101185E-1,0E0,0E0,0E0,5.5601034E0,0E0,0E0,0E0,0E0,0E0,0E0,0E0,0E0],"parents":[2147483647,0,0,1,1,2,2,4,4,5,5,7,7,8,8,9,9,10,10,13,13,14,14,16,16,17,17,18,18,22,22],"right_children":[2,4,6,-1,8,10,-1,12,14,16,18,-1,-1,20,22,-1,24,26,28,-1,-1,-1,30,-1,-1,-1,-1,-1,-1,-1,-1],"split_conditions":[5.3419447E-1,3.5074E-1,7.604166E3,-3.0616787E-1,7.8698805E4,-8.435827E-3,-2.5077444E-1,7.6555246E-1,7.063E3,1.0979302E0,-1.9666407E-1,3.3090603E-1,-2.0023447E-1,2.4758E4,-3.1875217E-1,-2.8618237E-2,3.3602073E3,1.691E3,1.5402092E-1,4.1711572E-1,-1.0951775E-1,-2.9373217E-1,9.323306E-3,2.9027364E-1,2.6211424E-2,2.0983513E-1,-1.3584983E-1,-1.4935503E-2,-2.0015226E-1,-2.4894299E-1,1.5668654E-1],"split_indices":[37,33,68,0,62,52,0,0,26,23,84,0,0,29,24,0,81,13,40,0,0,0,22,0,0,0,0,0,0,0,0],"split_type":[0,0,0,0,0,0,0,0,0,0,0,0,0,0,0,0,0,0,0,0,0,0,0,0,0,0,0,0,0,0,0],"sum_hessian":[1.4605588E2,1.2243633E2,2.3619547E1,7.577368E1,4.666265E1,1.9702168E1,3.9173803E0,4.7358475E0,4.1926804E1,1.2174521E1,7.5276456E0,3.07545E0,1.6603974E0,2.4383967E0,3.9488407E1,1.1877732E0,1.0986748E1,4.659643E0,2.8680027E0,1.140792E0,1.2976047E0,2.7391588E1,1.2096819E1,9.982519E0,1.004229E0,3.6000428E0,1.0596001E0,1.0893815E0,1.7786211E0,8.415516E0,3.681304E0],"tree_param":{"num_deleted":"0","num_feature":"90","num_nodes":"31","size_leaf_vector":"1"}},{"base_weights":[6.425046E-1,8.273331E-1,-2.3612146E-1,3.0220482E-1,5.3810793E-1,-7.5239396E-1,2.6827246E-1,2.1434574E-1,2.9181162E-1,-8.761033E-1,3.1451494E-2,2.7560103E-1,-2.460445E-1,5.083406E-1,-5.6152314E-1,-2.794672E-1,-6.519234E-2,-4.1263506E-1,8.190748E-1,2.0612487E-1,-3.4296137E-1,-3.3053002E-1,1.9701019E-1,2.6861456E-1,-6.528428E-3],"categories":[],"categories_nodes":[],"categories_segments":[],"categories_sizes":[],"default_left":[0,0,0,0,0,0,0,0,0,0,0,0,0,0,0,0,0,0,0,0,0,0,0,0,0],"id":20,"left_children":[1,3,5,-1,7,9,11,13,-1,15,-1,-1,-1,17,19,-1,-1,21,23,-1,-1,-1,-1,-1,-1],"loss_changes":[1.8939571E1,4.4345856E0,5.628314E0,0E0,5.253193E0,1.2118049E0,8.737011E0,5.652055E0,0E0,1.3863182E-1,0E0,0E0,0E0,5.370981E0,5.8262005E0,0E0,0E0,4.483112E0,8.847151E-1,0E0,0E0,0E0,0E0,0E0,0E0],"parents":[2147483647,0,0,1,1,2,2,4,4,5,5,6,6,7,7,9,9,13,13,14,14,17,17,18,18],"right_children":[2,4,6,-1,8,10,12,14,-1,16,-1,-1,-1,18,20,-1,-1,22,24,-1,-1,-1,-1,-1,-1],"split_conditions":[5.3419447E-1,3.5074E-1,1.2384198E0,3.0220482E-1,1.1823499E0,3.9233455E-1,6.1874E4,9.4582176E-1,2.9181162E-1,-1.5203862E-1,3.1451494E-2,2.7560103E-1,-2.460445E-1,5.257838E-1,5.612347E-1,-2.794672E-1,-6.519234E-2,5.49456E-1,-5.8391336E-3,2.0612487E-1,-3.4296137E-1,-3.3053002E-1,1.9701019E-1,2.6861456E-1,-6.528428E-3],"split_indices":[37,33,66,0,66,71,56,60,0,84,0,0,0,7,7,0,0,67,52,0,0,0,0,0,0],"split_type":[0,0,0,0,0,0,0,0,0,0,0,0,0,0,0,0,0,0,0,0,0,0,0,0,0],"sum_hessian":[1.14423546E2,9.458495E1,1.9838593E1,5.6768703E1,3.781625E1,9.560876E0,1.0277716E1,2.2527292E1,1.5288957E1,8.33589E0,1.2249868E0,6.5310044E0,3.7467117E0,1.6586927E1,5.940364E0,7.3068094E0,1.0290802E0,4.101798E0,1.248513E1,1.8303124E0,4.110051E0,2.475888E0,1.62591E0,1.1386884E1,1.0982461E0],"tree_param":{"num_deleted":"0","num_feature":"90","num_nodes":"25","size_leaf_vector":"1"}},{"base_weights":[-6.4250433E-1,-8.27333E-1,2.3612171E-1,-3.022048E-1,-5.381079E-1,7.52394E-1,-2.6827216E-1,-2.1434586E-1,-2.9181162E-1,8.7610334E-1,-3.1451516E-2,-2.75601E-1,2.4604453E-1,-5.083407E-1,5.6152314E-1,2.794672E-1,6.519239E-2,4.1263488E-1,-8.190748E-1,-2.0612489E-1,3.4296143E-1,3.3053E-1,-1.9701023E-1,-2.6861456E-1,6.5283994E-3],"categories":[],"categories_nodes":[],"categories_segments":[],"categories_sizes":[],"default_left":[0,0,0,0,0,0,0,0,0,0,0,0,0,0,0,0,0,0,0,0,0,0,0,0,0],"id":21,"left_children":[1,3,5,-1,7,9,11,13,-1,15,-1,-1,-1,17,19,-1,-1,21,23,-1,-1,-1,-1,-1,-1],"loss_changes":[1.8939583E1,4.434593E0,5.628312E0,0E0,5.25319E0,1.2118049E0,8.737013E0,5.6520567E0,0E0,1.3863277E-1,0E0,0E0,0E0,5.370981E0,5.826201E0,0E0,0E0,4.483113E0,8.847141E-1,0E0,0E0,0E0,0E0,0E0,0E0],"parents":[2147483647,0,0,1,1,2,2,4,4,5,5,6,6,7,7,9,9,13,13,14,14,17,17,18,18],"right_children":[2,4,6,-1,8,10,12,14,-1,16,-1,-1,-1,18,20,-1,-1,22,24,-1,-1,-1,-1,-1,-1],"split_conditions":[5.3419447E-1,3.5074E-1,1.2384198E0,-3.022048E-1,1.1823499E0,3.9233455E-1,6.1874E4,9.4582176E-1,-2.9181162E-1,-1.5203862E-1,-3.1451516E-2,-2.75601E-1,2.4604453E-1,5.257838E-1,5.612347E-1,2.794672E-1,6.519239E-2,5.49456E-1,-5.8391336E-3,-2.0612489E-1,3.4296143E-1,3.3053E-1,-1.9701023E-1,-2.6861456E-1,6.5283994E-3],"split_indices":[37,33,66,0,66,71,56,60,0,84,0,0,0,7,7,0,0,67,52,0,0,0,0,0,0],"split_type":[0,0,0,0,0,0,0,0,0,0,0,0,0,0,0,0,0,0,0,0,0,0,0,0,0],"sum_hessian":[1.14423515E2,9.458492E1,1.9838596E1,5.676867E1,3.781625E1,9.560879E0,1.0277717E1,2.2527296E1,1.5288952E1,8.335893E0,1.2249868E0,6.531003E0,3.7467134E0,1.6586933E1,5.940364E0,7.306812E0,1.0290805E0,4.101799E0,1.2485134E1,1.8303126E0,4.1100516E0,2.4758883E0,1.6259105E0,1.1386888E1,1.0982463E0],"tree_param":{"num_deleted":"0","num_feature":"90","num_nodes":"25","size_leaf_vector":"1"}},{"base_weights":[6.115916E-1,7.126081E-3,8.788705E-1,3.3235145E-1,-5.4416865E-1,-6.737482E-2,9.0279406E-1,6.39603E-1,-2.3204072E-1,-8.838212E-1,1.5908173E-1,9.4956154E-1,2.4867591E-1,-1.6964984E-1,7.793502E-1,-6.0817897E-2,-9.5661604E-1,1.7542492E-1,-8.2073346E-2,2.95904E-1,5.573031E-1,2.1838026E-1,-1.5759292E-1,2.6102522E-1,2.1684091E-1,-3.096418E-1,-9.17889E-2,-3.439915E-2,7.208617E-1,-7.688869E-2,1.7832093E-1,4.1617446E-2,2.4683884E-1],"categories":[],"categories_nodes":[],"categories_segments":[],"categories_sizes":[],"default_left":[0,0,0,0,0,0,0,0,0,0,0,0,0,0,0,0,0,0,0,0,0,0,0,0,0,0,0,0,0,0,0,0,0],"id":22,"left_children":[1,3,5,7,9,-1,11,13,-1,15,17,19,21,-1,23,-1,25,-1,-1,-1,27,-1,-1,-1,29,-1,-1,-1,31,-1,-1,-1,-1],"loss_changes":[1.4559719E1,5.317798E0,1.8528442E0,6.8282685E0,2.7704096E0,0E0,1.6415672E0,2.989626E0,0E0,1.8172216E-1,9.7642195E-1,2.7175903E-1,2.4041762E0,0E0,5.249977E-1,0E0,7.352352E-3,0E0,0E0,0E0,8.7177396E-1,0E0,0E0,0E0,7.372291E-1,0E0,0E0,0E0,2.366538E-1,0E0,0E0,0E0,0E0],"parents":[2147483647,0,0,1,1,2,2,3,3,4,4,6,6,7,7,9,9,10,10,11,11,12,12,14,14,16,16,20,20,24,24,28,28],"right_children":[2,4,6,8,10,-1,12,14,-1,16,18,20,22,-1,24,-1,26,-1,-1,-1,28,-1,-1,-1,30,-1,-1,-1,32,-1,-1,-1,-1],"split_conditions":[1.6155869E3,6.6719353E-3,3.7572095E-1,5.5725E4,2.533E3,-6.737482E-2,1.2730139E-2,1.0407801E0,-2.3204072E-1,3.7537E4,1.5356301E1,3.999645E-1,-2.9428566E-1,-1.6964984E-1,1.2476609E0,-6.0817897E-2,1.2640032E1,1.7542492E-1,-8.2073346E-2,2.95904E-1,7.0281994E-1,2.1838026E-1,-1.5759292E-1,2.6102522E-1,1.4799139E5,-3.096418E-1,-9.17889E-2,-3.439915E-2,1.4190156E1,-7.688869E-2,1.7832093E-1,4.1617446E-2,2.4683884E-1],"split_indices":[51,22,67,56,43,0,22,66,0,28,74,37,54,0,36,0,44,0,0,0,3,0,0,0,62,0,0,0,44,0,0,0,0],"split_type":[0,0,0,0,0,0,0,0,0,0,0,0,0,0,0,0,0,0,0,0,0,0,0,0,0,0,0,0,0,0,0,0,0],"sum_hessian":[8.915785E1,2.7650784E1,6.1507065E1,1.7640982E1,1.0009803E1,1.1272265E0,6.037984E1,1.4135143E1,3.5058382E0,6.5766683E0,3.4331346E0,5.5929386E1,4.4504523E0,1.1522434E0,1.29829E1,1.0005031E0,5.576165E0,1.5533559E0,1.8797785E0,4.974946E1,6.1799283E0,2.7852817E0,1.6651703E0,1.0708766E1,2.2741342E0,4.4709015E0,1.1052636E0,1.2682737E0,4.9116545E0,1.1518692E0,1.122265E0,1.0836971E0,3.8279574E0],"tree_param":{"num_deleted":"0","num_feature":"90","num_nodes":"33","size_leaf_vector":"1"}},{"base_weights":[-6.1159134E-1,-7.126127E-3,-8.7887037E-1,-3.323517E-1,5.441688E-1,6.7374855E-2,-9.0279394E-1,-6.396031E-1,2.3204066E-1,8.838212E-1,-1.5908153E-1,-9.495615E-1,-2.4867576E-1,1.6964985E-1,-7.793502E-1,6.081796E-2,9.5661604E-1,-1.7542487E-1,8.2073346E-2,-2.95904E-1,-5.5730337E-1,-2.1838023E-1,1.575929E-1,-2.6102522E-1,-2.1684091E-1,3.096418E-1,9.178888E-2,3.4399074E-2,-7.2086185E-1,7.688869E-2,-1.7832093E-1,-4.1617453E-2,-2.468389E-1],"categories":[],"categories_nodes":[],"categories_segments":[],"categories_sizes":[],"default_left":[0,0,0,0,0,0,0,0,0,0,0,0,0,0,0,0,0,0,0,0,0,0,0,0,0,0,0,0,0,0,0,0,0],"id":23,"left_children":[1,3,5,7,9,-1,11,13,-1,15,17,19,21,-1,23,-1,25,-1,-1,-1,27,-1,-1,-1,29,-1,-1,-1,31,-1,-1,-1,-1],"loss_changes":[1.4559708E1,5.317804E0,1.852848E0,6.8282633E0,2.7704098E0,0E0,1.6415672E0,2.989627E0,0E0,1.8172073E-1,9.7642183E-1,2.7175522E-1,2.4041753E0,0E0,5.249977E-1,0E0,7.352829E-3,0E0,0E0,0E0,8.717735E-1,0E0,0E0,0E0,7.372292E-1,0E0,0E0,0E0,2.3665404E-1,0E0,0E0,0E0,0E0],"parents":[2147483647,0,0,1,1,2,2,3,3,4,4,6,6,7,7,9,9,10,10,11,11,12,12,14,14,16,16,20,20,24,24,28,28],"right_children":[2,4,6,8,10,-1,12,14,-1,16,18,20,22,-1,24,-1,26,-1,-1,-1,28,-1,-1,-1,30,-1,-1,-1,32,-1,-1,-1,-1],"split_conditions":[1.6155869E3,6.6719353E-3,3.7572095E-1,5.5725E4,2.533E3,6.7374855E-2,1.2730139E-2,1.0407801E0,2.3204066E-1,3.7537E4,1.5356301E1,3.999645E-1,-2.9428566E-1,1.6964985E-1,1.2476609E0,6.081796E-2,1.2640032E1,-1.7542487E-1,8.2073346E-2,-2.95904E-1,7.0281994E-1,-2.1838023E-1,1.575929E-1,-2.6102522E-1,1.4799139E5,3.096418E-1,9.178888E-2,3.4399074E-2,1.4190156E1,7.688869E-2,-1.7832093E-1,-4.1617453E-2,-2.468389E-1],"split_indices":[51,22,67,56,43,0,22,66,0,28,74,37,54,0,36,0,44,0,0,0,3,0,0,0,62,0,0,0,44,0,0,0,0],"split_type":[0,0,0,0,0,0,0,0,0,0,0,0,0,0,0,0,0,0,0,0,0,0,0,0,0,0,0,0,0,0,0,0,0],"sum_hessian":[8.915779E1,2.7650785E1,6.1507004E1,1.764098E1,1.0009806E1,1.1272259E0,6.037978E1,1.4135145E1,3.5058353E0,6.5766706E0,3.433135E0,5.592933E1,4.4504504E0,1.1522433E0,1.2982902E1,1.0005035E0,5.576167E0,1.5533557E0,1.8797793E0,4.9749397E1,6.1799316E0,2.7852802E0,1.6651703E0,1.0708767E1,2.2741344E0,4.4709034E0,1.1052637E0,1.268274E0,4.911658E0,1.1518692E0,1.1222651E0,1.0836973E0,3.8279605E0],"tree_param":{"num_deleted":"0","num_feature":"90","num_nodes":"33","size_leaf_vector":"1"}},{"base_weights":[5.6521624E-1,-6.534256E-3,8.396023E-1,3.0212405E-1,-4.5994362E-1,-5.6676086E-2,8.6782503E-1,5.872682E-1,-2.1353152E-1,-7.8576976E-1,1.5586652E-1,9.204861E-1,2.171932E-1,-1.5140772E-1,7.343156E-1,-2.7796617E-1,-2.853204E-1,1.6228701E-1,-6.569499E-2,2.9276764E-1,5.379848E-1,-1.6544485E-1,1.7953417E-1,7.950502E-1,2.6630118E-2,7.901336E-3,-1.3357718E-1,-2.6405172E-2,7.24286E-1,1.0322465E-1,2.6222754E-1,4.7430832E-2,2.4737234E-1],"categories":[],"categories_nodes":[],"categories_segments":[],"categories_sizes":[],"default_left":[0,0,0,0,0,0,0,0,0,0,0,0,0,0,0,0,0,0,0,0,0,0,0,0,0,0,0,0,0,0,0,0,0],"id":24,"left_children":[1,3,5,7,9,-1,11,13,-1,15,17,19,21,-1,23,25,-1,-1,-1,-1,27,-1,-1,29,-1,-1,-1,-1,31,-1,-1,-1,-1],"loss_changes":[1.1354132E1,3.5607865E0,1.5830803E0,4.7982473E0,2.1890628E0,0E0,1.4365463E0,2.3573685E0,0E0,3.1491947E-1,7.533678E-1,4.0485764E-1,1.7616755E0,0E0,3.7294054E-1,1.6993447E-1,0E0,0E0,0E0,0E0,9.710951E-1,0E0,0E0,6.330824E-2,0E0,0E0,0E0,0E0,2.1622992E-1,0E0,0E0,0E0,0E0],"parents":[2147483647,0,0,1,1,2,2,3,3,4,4,6,6,7,7,9,9,10,10,11,11,12,12,14,14,15,15,20,20,23,23,28,28],"right_children":[2,4,6,8,10,-1,12,14,-1,16,18,20,22,-1,24,26,-1,-1,-1,-1,28,-1,-1,30,-1,-1,-1,-1,32,-1,-1,-1,-1],"split_conditions":[1.6155869E3,6.5011512E-3,3.7572095E-1,5.5725E4,2.533E3,-5.6676086E-2,1.2730139E-2,7.8698805E4,-2.1353152E-1,1.414E3,1.5356301E1,3.688792E-1,1.6503464E1,-1.5140772E-1,5.806723E0,6.9615656E-1,-2.853204E-1,1.6228701E-1,-6.569499E-2,2.9276764E-1,1.152701E0,-1.6544485E-1,1.7953417E-1,2.9761906E0,2.6630118E-2,7.901336E-3,-1.3357718E-1,-2.6405172E-2,5.617551E3,1.0322465E-1,2.6222754E-1,4.7430832E-2,2.4737234E-1],"split_indices":[51,22,67,56,43,0,22,62,0,13,74,37,44,0,19,7,0,0,0,0,66,0,0,15,0,0,0,0,68,0,0,0,0],"split_type":[0,0,0,0,0,0,0,0,0,0,0,0,0,0,0,0,0,0,0,0,0,0,0,0,0,0,0,0,0,0,0,0,0],"sum_hessian":[7.133948E1,2.34506E1,4.7888878E1,1.4150983E1,9.299616E0,1.126909E0,4.676197E1,1.1373207E1,2.777776E0,5.9012575E0,3.3983586E0,4.287683E1,3.8851366E0,1.0611356E0,1.0312072E1,2.1077523E0,3.7935054E0,1.4577035E0,1.9406551E0,3.6096806E1,6.7800283E0,1.1400651E0,2.7450714E0,9.213642E0,1.0984292E0,1.046579E0,1.0611732E0,1.6759895E0,5.1040387E0,2.1723833E0,7.041259E0,1.1557391E0,3.9482996E0],"tree_param":{"num_deleted":"0","num_feature":"90","num_nodes":"33","size_leaf_vector":"1"}},{"base_weights":[-5.652158E-1,6.5340297E-3,-8.39602E-1,-3.0212456E-1,4.599437E-1,5.6675963E-2,-8.6782473E-1,-5.872682E-1,2.135314E-1,7.857699E-1,-1.5586665E-1,-9.2048585E-1,-2.1719277E-1,1.5140773E-1,-7.343156E-1,2.779661E-1,2.8532043E-1,-1.6228706E-1,6.5694965E-2,-2.9276758E-1,-5.3798485E-1,1.6544487E-1,-1.7953408E-1,-7.9505026E-1,-2.6630085E-2,-7.901359E-3,1.3357718E-1,2.6405217E-2,-7.2428614E-1,-1.0322464E-1,-2.6222757E-1,-4.743092E-2,-2.4737237E-1],"categories":[],"categories_nodes":[],"categories_segments":[],"categories_sizes":[],"default_left":[0,0,0,0,0,0,0,0,0,0,0,0,0,0,0,0,0,0,0,0,0,0,0,0,0,0,0,0,0,0,0,0,0],"id":25,"left_children":[1,3,5,7,9,-1,11,13,-1,15,17,19,21,-1,23,25,-1,-1,-1,-1,27,-1,-1,29,-1,-1,-1,-1,31,-1,-1,-1,-1],"loss_changes":[1.1354113E1,3.5607924E0,1.5830803E0,4.798239E0,2.189064E0,0E0,1.4365387E0,2.3573694E0,0E0,3.1492043E-1,7.53368E-1,4.0486145E-1,1.7616746E0,0E0,3.7294006E-1,1.6993454E-1,0E0,0E0,0E0,0E0,9.7109556E-1,0E0,0E0,6.3308716E-2,0E0,0E0,0E0,0E0,2.1622968E-1,0E0,0E0,0E0,0E0],"parents":[2147483647,0,0,1,1,2,2,3,3,4,4,6,6,7,7,9,9,10,10,11,11,12,12,14,14,15,15,20,20,23,23,28,28],"right_children":[2,4,6,8,10,-1,12,14,-1,16,18,20,22,-1,24,26,-1,-1,-1,-1,28,-1,-1,30,-1,-1,-1,-1,32,-1,-1,-1,-1],"split_conditions":[1.6155869E3,6.5011512E-3,3.7572095E-1,5.5725E4,2.533E3,5.6675963E-2,1.2730139E-2,7.8698805E4,2.135314E-1,1.414E3,1.5356301E1,3.688792E-1,1.6503464E1,1.5140773E-1,5.806723E0,6.9615656E-1,2.8532043E-1,-1.6228706E-1,6.5694965E-2,-2.9276758E-1,1.152701E0,1.6544487E-1,-1.7953408E-1,2.9761906E0,-2.6630085E-2,-7.901359E-3,1.3357718E-1,2.6405217E-2,5.617551E3,-1.0322464E-1,-2.6222757E-1,-4.743092E-2,-2.4737237E-1],"split_indices":[51,22,67,56,43,0,22,62,0,13,74,37,44,0,19,7,0,0,0,0,66,0,0,15,0,0,0,0,68,0,0,0,0],"split_type":[0,0,0,0,0,0,0,0,0,0,0,0,0,0,0,0,0,0,0,0,0,0,0,0,0,0,0,0,0,0,0,0,0],"sum_hessian":[7.133939E1,2.3450598E1,4.7888794E1,1.4150981E1,9.299618E0,1.1269091E0,4.6761883E1,1.137321E1,2.777771E0,5.9012594E0,3.3983583E0,4.287675E1,3.8851342E0,1.0611359E0,1.0312074E1,2.1077518E0,3.7935076E0,1.4577035E0,1.9406548E0,3.609672E1,6.78003E0,1.1400652E0,2.745069E0,9.213645E0,1.0984291E0,1.0465788E0,1.0611731E0,1.6759895E0,5.1040406E0,2.172383E0,7.0412617E0,1.1557395E0,3.9483008E0],"tree_param":{"num_deleted":"0","num_feature":"90","num_nodes":"33","size_leaf_vector":"1"}},{"base_weights":[5.141088E-1,7.685636E-1,-7.830369E-2,2.9133508E-1,4.198427E-1,-4.9870864E-1,3.3216187E-1,-4.0442985E-1,5.919848E-1,5.7874307E-2,-7.489173E-1,7.9509664E-1,-2.0728624E-1,-2.3316602E-1,7.632684E-2,-8.145329E-2,2.6431054E-1,-1.279101E-1,1.5134668E-1,1.6964418E-3,-2.6538977E-1,2.5964633E-1,5.4753724E-2,-2.241206E-1,2.0560725E-1],"categories":[],"categories_nodes":[],"categories_segments":[],"categories_sizes":[],"default_left":[0,0,0,0,0,0,0,0,0,0,0,0,0,0,0,0,0,0,0,0,0,0,0,0,0],"id":26,"left_children":[1,3,5,-1,7,9,11,13,15,17,19,21,-1,-1,-1,23,-1,-1,-1,-1,-1,-1,-1,-1,-1],"loss_changes":[8.974277E0,2.5207386E0,3.388331E0,0E0,2.6508477E0,1.3838532E0,5.309266E0,1.0648004E0,2.8874187E0,1.0614679E0,6.923907E-1,1.6043806E-1,0E0,0E0,0E0,3.1963806E0,0E0,0E0,0E0,0E0,0E0,0E0,0E0,0E0,0E0],"parents":[2147483647,0,0,1,1,2,2,4,4,5,5,6,6,7,7,8,8,9,9,10,10,11,11,15,15],"right_children":[2,4,6,-1,8,10,12,14,16,18,20,22,-1,-1,-1,24,-1,-1,-1,-1,-1,-1,-1,-1,-1],"split_conditions":[4.2554808E-1,3.5074E-1,1.2076176E0,2.9133508E-1,1.0407801E0,9.0501434E-1,5.832E4,7.3333E-1,-3.9907508E-2,2.9761906E0,1.1320328E0,1.4034948E5,-2.0728624E-1,-2.3316602E-1,7.632684E-2,1.1722502E0,2.6431054E-1,-1.279101E-1,1.5134668E-1,1.6964418E-3,-2.6538977E-1,2.5964633E-1,5.4753724E-2,-2.241206E-1,2.0560725E-1],"split_indices":[37,33,66,0,66,60,56,0,82,16,36,32,0,0,0,66,0,0,0,0,0,0,0,0,0],"split_type":[0,0,0,0,0,0,0,0,0,0,0,0,0,0,0,0,0,0,0,0,0,0,0,0,0],"sum_hessian":[5.8134712E1,4.0459206E1,1.7675508E1,2.446437E1,1.5994834E1,8.625826E0,9.049683E0,2.530168E0,1.3464666E1,2.9135036E0,5.712322E0,6.3839636E0,2.6657188E0,1.5011401E0,1.0290279E0,4.259338E0,9.205329E0,1.4196193E0,1.4938843E0,1.016874E0,4.6954484E0,5.3557014E0,1.0282621E0,2.293904E0,1.9654336E0],"tree_param":{"num_deleted":"0","num_feature":"90","num_nodes":"25","size_leaf_vector":"1"}},{"base_weights":[-5.1410943E-1,-7.68564E-1,7.830325E-2,-2.9133508E-1,-4.1984308E-1,4.987085E-1,-3.3216253E-1,4.044297E-1,-5.919851E-1,-5.787443E-2,7.4891704E-1,-7.9509676E-1,2.0728615E-1,2.3316601E-1,-7.6326884E-2,8.1453085E-2,-2.643106E-1,1.2791008E-1,-1.5134668E-1,-1.6965343E-3,2.6538977E-1,-2.596464E-1,-5.4753732E-2,2.2412057E-1,-2.0560728E-1],"categories":[],"categories_nodes":[],"categories_segments":[],"categories_sizes":[],"default_left":[0,0,0,0,0,0,0,0,0,0,0,0,0,0,0,0,0,0,0,0,0,0,0,0,0],"id":27,"left_children":[1,3,5,-1,7,9,11,13,15,17,19,21,-1,-1,-1,23,-1,-1,-1,-1,-1,-1,-1,-1,-1],"loss_changes":[8.974284E0,2.5207348E0,3.3883345E0,0E0,2.6508484E0,1.3838534E0,5.3092628E0,1.064801E0,2.8874192E0,1.0614678E0,6.923921E-1,1.6043806E-1,0E0,0E0,0E0,3.1963809E0,0E0,0E0,0E0,0E0,0E0,0E0,0E0,0E0,0E0],"parents":[2147483647,0,0,1,1,2,2,4,4,5,5,6,6,7,7,8,8,9,9,10,10,11,11,15,15],"right_children":[2,4,6,-1,8,10,12,14,16,18,20,22,-1,-1,-1,24,-1,-1,-1,-1,-1,-1,-1,-1,-1],"split_conditions":[4.2554808E-1,3.5074E-1,1.2076176E0,-2.9133508E-1,1.0407801E0,9.0501434E-1,5.832E4,7.3333E-1,-3.9907508E-2,2.9761906E0,1.1320328E0,1.4034948E5,2.0728615E-1,2.3316601E-1,-7.6326884E-2,1.1722502E0,-2.643106E-1,1.2791008E-1,-1.5134668E-1,-1.6965343E-3,2.6538977E-1,-2.596464E-1,-5.4753732E-2,2.2412057E-1,-2.0560728E-1],"split_indices":[37,33,66,0,66,60,56,0,82,16,36,32,0,0,0,66,0,0,0,0,0,0,0,0,0],"split_type":[0,0,0,0,0,0,0,0,0,0,0,0,0,0,0,0,0,0,0,0,0,0,0,0,0],"sum_hessian":[5.813478E1,4.045927E1,1.767551E1,2.4464426E1,1.5994844E1,8.625827E0,9.049684E0,2.5301683E0,1.3464676E1,2.9135036E0,5.712323E0,6.383968E0,2.665716E0,1.5011401E0,1.0290282E0,4.259339E0,9.205338E0,1.419619E0,1.4938847E0,1.0168746E0,4.6954484E0,5.3557053E0,1.0282625E0,2.2939043E0,1.9654344E0],"tree_param":{"num_deleted":"0","num_feature":"90","num_nodes":"25","size_leaf_vector":"1"}},{"base_weights":[4.75992E-1,8.7141377E-1,8.8657506E-2,2.8721112E-1,3.453329E-1,-2.4510275E-1,5.886353E-1,2.0670441E-1,-6.9034606E-2,-4.3929943E-1,2.6128814E-1,-1.3202843E-1,8.044203E-1,-6.992978E-1,2.7606381E-2,-8.39774E-2,5.4135513E-1,3.4618676E-2,2.6535693E-1,2.1173637E-2,-8.3152944E-1,2.03451E-1,-1.8344006E-1,1.9683993E-1,3.6547016E-2,-7.544341E-2,-2.7403367E-1],"categories":[],"categories_nodes":[],"categories_segments":[],"categories_sizes":[],"default_left":[0,0,0,0,0,0,0,0,0,0,0,0,0,0,0,0,0,0,0,0,0,0,0,0,0,0,0],"id":28,"left_children":[1,3,5,-1,7,9,11,-1,-1,13,15,-1,17,19,21,-1,23,-1,-1,-1,25,-1,-1,-1,-1,-1,-1],"loss_changes":[7.233959E0,7.324238E-1,4.3540897E0,0E0,1.1208618E0,1.6719508E0,2.6611233E0,0E0,0E0,1.4539912E0,9.1188264E-1,0E0,3.9161062E-1,8.353522E-1,2.5721285E0,0E0,9.565687E-2,0E0,0E0,0E0,8.337355E-2,0E0,0E0,0E0,0E0,0E0,0E0],"parents":[2147483647,0,0,1,1,2,2,4,4,5,5,6,6,9,9,10,10,12,12,13,13,14,14,16,16,20,20],"right_children":[2,4,6,-1,8,10,12,-1,-1,14,16,-1,18,20,22,-1,24,-1,-1,-1,26,-1,-1,-1,-1,-1,-1],"split_conditions":[9.946E3,3.8371405E-1,2.952E3,2.8721112E-1,1.1559903E1,2.1646E4,4.8065487E-1,2.0670441E-1,-6.9034606E-2,1.3791E5,7.065E3,-1.3202843E-1,4.112546E-1,1.7715419E-2,5.1544E4,-8.39774E-2,2.4102E4,3.4618676E-2,2.6535693E-1,2.1173637E-2,2.4195E4,2.03451E-1,-1.8344006E-1,1.9683993E-1,3.6547016E-2,-7.544341E-2,-2.7403367E-1],"split_indices":[56,33,43,0,14,88,67,0,0,62,26,0,41,16,56,0,72,0,0,0,72,0,0,0,0,0,0],"split_type":[0,0,0,0,0,0,0,0,0,0,0,0,0,0,0,0,0,0,0,0,0,0,0,0,0,0,0],"sum_hessian":[4.673566E1,2.2507969E1,2.4227694E1,1.8642197E1,3.865771E0,1.4834616E1,9.393077E0,2.2967205E0,1.5690506E0,1.08183565E1,4.0162597E0,1.4484158E0,7.944661E0,6.6291566E0,4.1892E0,1.3697697E0,2.64649E0,1.0815992E0,6.863062E0,1.0400496E0,5.589107E0,2.0456214E0,2.1435785E0,1.6351669E0,1.0113232E0,1.195273E0,4.3938336E0],"tree_param":{"num_deleted":"0","num_feature":"90","num_nodes":"27","size_leaf_vector":"1"}},{"base_weights":[-4.7599262E-1,-8.7141407E-1,-8.865768E-2,-2.8721115E-1,-3.4533274E-1,2.4510269E-1,-5.8863544E-1,-2.0670438E-1,6.9034584E-2,4.392993E-1,-2.6128808E-1,1.3202848E-1,-8.0442035E-1,6.992976E-1,-2.7606355E-2,8.397744E-2,-5.4135513E-1,-3.4618568E-2,-2.6535696E-1,-2.1173766E-2,8.315294E-1,-2.0345102E-1,1.8344006E-1,-1.9683993E-1,-3.654697E-2,7.544339E-2,2.7403367E-1],"categories":[],"categories_nodes":[],"categories_segments":[],"categories_sizes":[],"default_left":[0,0,0,0,0,0,0,0,0,0,0,0,0,0,0,0,0,0,0,0,0,0,0,0,0,0,0],"id":29,"left_children":[1,3,5,-1,7,9,11,-1,-1,13,15,-1,17,19,21,-1,23,-1,-1,-1,25,-1,-1,-1,-1,-1,-1],"loss_changes":[7.2339687E0,7.324219E-1,4.3540916E0,0E0,1.120861E0,1.6719497E0,2.6611245E0,0E0,0E0,1.4539905E0,9.118829E-1,0E0,3.9161205E-1,8.353536E-1,2.572129E0,0E0,9.565711E-2,0E0,0E0,0E0,8.337355E-2,0E0,0E0,0E0,0E0,0E0,0E0],"parents":[2147483647,0,0,1,1,2,2,4,4,5,5,6,6,9,9,10,10,12,12,13,13,14,14,16,16,20,20],"right_children":[2,4,6,-1,8,10,12,-1,-1,14,16,-1,18,20,22,-1,24,-1,-1,-1,26,-1,-1,-1,-1,-1,-1],"split_conditions":[9.946E3,3.8371405E-1,2.952E3,-2.8721115E-1,1.1559903E1,2.1646E4,4.8065487E-1,-2.0670438E-1,6.9034584E-2,1.3791E5,7.065E3,1.3202848E-1,4.112546E-1,1.7715419E-2,5.1544E4,8.397744E-2,2.4102E4,-3.4618568E-2,-2.6535696E-1,-2.1173766E-2,2.4195E4,-2.0345102E-1,1.8344006E-1,-1.9683993E-1,-3.654697E-2,7.544339E-2,2.7403367E-1],"split_indices":[56,33,43,0,14,88,67,0,0,62,26,0,41,16,56,0,72,0,0,0,72,0,0,0,0,0,0],"split_type":[0,0,0,0,0,0,0,0,0,0,0,0,0,0,0,0,0,0,0,0,0,0,0,0,0,0,0],"sum_hessian":[4.6735718E1,2.2508022E1,2.4227697E1,1.8642252E1,3.86577E0,1.4834616E1,9.393082E0,2.2967193E0,1.5690508E0,1.08183565E1,4.0162597E0,1.4484158E0,7.944666E0,6.629156E0,4.1892004E0,1.3697696E0,2.6464899E0,1.0815991E0,6.8630667E0,1.0400494E0,5.5891066E0,2.0456216E0,2.143579E0,1.635167E0,1.0113229E0,1.195273E0,4.3938336E0],"tree_param":{"num_deleted":"0","num_feature":"90","num_nodes":"27","size_leaf_vector":"1"}}]},"name":"gbtree"},"learner_model_param":{"base_score":"5E-1","boost_from_average":"1","num_class":"0","num_feature":"90","num_target":"2"},"objective":{"name":"binary:logistic","reg_loss_param":{"scale_pos_weight":"1"}}},"version":[2,0,3]}